{"learner":{"attributes":{"scikit_learn":"{\"_estimator_type\": \"classifier\"}"},"feature_names":["port","subdomain_count","query_param_count","query_value_count","is_https","is_domain_ip","has_userinfo","url_length","length_url","domain_length","path_length","query_length","digit_count","letter_count","special_char_count","dot_count","qty_dot_url","hyphen_count","qty_hyphen_path","underscore_count","at_count","slash_count","question_mark_count","equal_count","ampersand_count","percent_count","digit_ratio","special_char_ratio","contains_punycode","has_long_repeated_char_sequence","url_entropy","has_auth_section","suspicious_keyword_count","contains_login_keyword","contains_secure_keyword","contains_token_keyword","has_brand_keyword","subdomain_auth_count","tld_length","tld_is_common","tld_is_suspicious","is_shortened_url","subdomain_count_feature","is_domain_ip_feature"],"feature_types":["int","int","int","int","int","int","int","int","int","int","int","int","int","int","int","int","int","int","int","int","int","int","int","int","int","int","float","float","int","int","float","int","int","int","int","int","int","int","int","int","int","int","int","int"],"gradient_booster":{"model":{"cats":{"enc":[],"feature_segments":[],"sorted_idx":[]},"gbtree_model_param":{"num_parallel_tree":"1","num_trees":"341"},"iteration_indptr":[0,1,2,3,4,5,6,7,8,9,10,11,12,13,14,15,16,17,18,19,20,21,22,23,24,25,26,27,28,29,30,31,32,33,34,35,36,37,38,39,40,41,42,43,44,45,46,47,48,49,50,51,52,53,54,55,56,57,58,59,60,61,62,63,64,65,66,67,68,69,70,71,72,73,74,75,76,77,78,79,80,81,82,83,84,85,86,87,88,89,90,91,92,93,94,95,96,97,98,99,100,101,102,103,104,105,106,107,108,109,110,111,112,113,114,115,116,117,118,119,120,121,122,123,124,125,126,127,128,129,130,131,132,133,134,135,136,137,138,139,140,141,142,143,144,145,146,147,148,149,150,151,152,153,154,155,156,157,158,159,160,161,162,163,164,165,166,167,168,169,170,171,172,173,174,175,176,177,178,179,180,181,182,183,184,185,186,187,188,189,190,191,192,193,194,195,196,197,198,199,200,201,202,203,204,205,206,207,208,209,210,211,212,213,214,215,216,217,218,219,220,221,222,223,224,225,226,227,228,229,230,231,232,233,234,235,236,237,238,239,240,241,242,243,244,245,246,247,248,249,250,251,252,253,254,255,256,257,258,259,260,261,262,263,264,265,266,267,268,269,270,271,272,273,274,275,276,277,278,279,280,281,282,283,284,285,286,287,288,289,290,291,292,293,294,295,296,297,298,299,300,301,302,303,304,305,306,307,308,309,310,311,312,313,314,315,316,317,318,319,320,321,322,323,324,325,326,327,328,329,330,331,332,333,334,335,336,337,338,339,340,341],"tree_info":[0,0,0,0,0,0,0,0,0,0,0,0,0,0,0,0,0,0,0,0,0,0,0,0,0,0,0,0,0,0,0,0,0,0,0,0,0,0,0,0,0,0,0,0,0,0,0,0,0,0,0,0,0,0,0,0,0,0,0,0,0,0,0,0,0,0,0,0,0,0,0,0,0,0,0,0,0,0,0,0,0,0,0,0,0,0,0,0,0,0,0,0,0,0,0,0,0,0,0,0,0,0,0,0,0,0,0,0,0,0,0,0,0,0,0,0,0,0,0,0,0,0,0,0,0,0,0,0,0,0,0,0,0,0,0,0,0,0,0,0,0,0,0,0,0,0,0,0,0,0,0,0,0,0,0,0,0,0,0,0,0,0,0,0,0,0,0,0,0,0,0,0,0,0,0,0,0,0,0,0,0,0,0,0,0,0,0,0,0,0,0,0,0,0,0,0,0,0,0,0,0,0,0,0,0,0,0,0,0,0,0,0,0,0,0,0,0,0,0,0,0,0,0,0,0,0,0,0,0,0,0,0,0,0,0,0,0,0,0,0,0,0,0,0,0,0,0,0,0,0,0,0,0,0,0,0,0,0,0,0,0,0,0,0,0,0,0,0,0,0,0,0,0,0,0,0,0,0,0,0,0,0,0,0,0,0,0,0,0,0,0,0,0,0,0,0,0,0,0,0,0,0,0,0,0,0,0,0,0,0,0,0,0,0,0,0,0,0,0,0,0,0,0,0,0,0,0,0,0,0,0,0,0,0,0,0,0,0,0,0,0],"trees":[{"base_weights":[6.011002E-8,4.308539E0,-1.1981779E0,4.122457E0,4.3104725E0,3.5567625E0,-1.23133E0,1.2931408E0,3.7253733E0,1.2931418E0,1.2931418E0,1.7252967E0,4.179409E0,-1.2374889E0,3.8017273E0,8.17289E-1,1.2830557E0,1.1032995E0,1.2931355E0,3.991054E0,4.2433476E0,-1.2492529E0,-3.442462E-1,9.407216E-1,4.2050633E0,4.6191302E-1,8.1717944E-1,4.207006E0,1.1048222E0,4.147311E0,4.2878084E0,-1.2516025E0,1.0632076E0,-5.244194E-1,2.5631616E0,1.2214857E0,1.2931366E0,1.8600562E-1,3.360489E-1,1.2796668E0,1.2382299E0,1.276385E0,1.198941E0,1.255718E0,1.2905624E0,-3.7695697E-1,-2.0682271E-1,-1.9619334E-2,9.008027E-1,-2.2505315E-1,2.0164038E-1,4.7212824E-1,1.1636149E0],"categories":[],"categories_nodes":[],"categories_segments":[],"categories_sizes":[],"default_left":[0,0,0,0,0,0,0,0,0,0,0,0,0,0,0,0,0,0,0,0,0,0,0,0,0,0,0,0,0,0,0,0,0,0,0,0,0,0,0,0,0,0,0,0,0,0,0,0,0,0,0,0,0],"id":0,"left_children":[1,3,5,7,9,11,13,-1,15,-1,-1,17,19,21,23,-1,-1,25,-1,27,29,31,33,-1,35,-1,37,39,-1,41,43,45,47,49,51,-1,-1,-1,-1,-1,-1,-1,-1,-1,-1,-1,-1,-1,-1,-1,-1,-1,-1],"loss_changes":[3.3125538E5,5.015625E0,7.914172E3,1.0718018E1,3.125E-2,3.9640234E2,1.5454766E3,0E0,2.5473816E1,0E0,0E0,1.4181247E2,3.1210938E0,5.2328125E2,1.6365479E1,0E0,0E0,8.875946E0,0E0,4.374634E0,8.2373047E-1,2.6703906E2,3.3907895E2,0E0,5.307617E-1,0E0,2.5644264E0,1.7706299E-1,0E0,9.8913574E-1,1.8701172E-1,1.358125E2,1.09201164E2,1.646525E2,4.916313E1,0E0,0E0,0E0,0E0,0E0,0E0,0E0,0E0,0E0,0E0,0E0,0E0,0E0,0E0,0E0,0E0,0E0,0E0],"parents":[2147483647,0,0,1,1,2,2,3,3,4,4,5,5,6,6,8,8,11,11,12,12,13,13,14,14,17,17,19,19,20,20,21,21,22,22,24,24,26,26,27,27,29,29,30,30,31,31,32,32,33,33,34,34],"right_children":[2,4,6,8,10,12,14,-1,16,-1,-1,18,20,22,24,-1,-1,26,-1,28,30,32,34,-1,36,-1,38,40,-1,42,44,46,48,50,52,-1,-1,-1,-1,-1,-1,-1,-1,-1,-1,-1,-1,-1,-1,-1,-1,-1,-1],"split_conditions":[1E0,7E0,1E0,5E0,4.8E1,2E0,2E0,1.2931408E0,4.1561985E0,1.2931418E0,1.2931418E0,1E0,3.9927087E0,1E0,4.5720954E0,8.17289E-1,1.2830557E0,1.8E1,1.2931355E0,2.4E1,3.9E1,1.57E2,4.768963E0,9.407216E-1,4.806349E0,4.6191302E-1,3.928166E0,1.7E1,1.1048222E0,1.8E1,4.139461E0,4.829024E0,5E0,2.8E1,2.2E1,1.2214857E0,1.2931366E0,1.8600562E-1,3.360489E-1,1.2796668E0,1.2382299E0,1.276385E0,1.198941E0,1.255718E0,1.2905624E0,-3.7695697E-1,-2.0682271E-1,-1.9619334E-2,9.008027E-1,-2.2505315E-1,2.0164038E-1,4.7212824E-1,1.1636149E0],"split_indices":[4,9,42,21,10,10,32,0,30,0,0,22,30,32,30,0,0,13,0,13,13,11,30,0,30,0,30,13,0,10,30,30,21,9,9,0,0,0,0,0,0,0,0,0,0,0,0,0,0,0,0,0,0],"split_type":[0,0,0,0,0,0,0,0,0,0,0,0,0,0,0,0,0,0,0,0,0,0,0,0,0,0,0,0,0,0,0,0,0,0,0,0,0,0,0,0,0,0,0,0,0,0,0,0,0,0,0,0,0],"sum_hessian":[6.416698E4,1.3961761E4,5.020522E4,1.4360689E2,1.3818154E4,3.476142E2,4.9857605E4,9.746026E1,4.614663E1,1.1777012E4,2.0411421E3,8.81953E1,2.5941888E2,4.9796668E4,6.0934933E1,1.6391853E1,2.9754778E1,7.109076E1,1.7104542E1,6.574558E1,1.9367331E2,4.9149367E4,6.4730005E2,2.298423E1,3.7950703E1,2.8151226E1,4.293953E1,3.8663395E1,2.7082193E1,6.129128E1,1.3238203E2,4.909948E4,4.988825E1,6.095275E2,3.7772533E1,1.6748198E1,2.1202507E1,2.6013159E1,1.692637E1,2.227154E1,1.6391853E1,3.5812637E1,2.5478642E1,1.603551E1,1.1634653E2,4.8673473E4,4.2601E2,3.15365E1,1.835175E1,5.127799E2,9.674757E1,2.1558851E1,1.621368E1],"tree_param":{"num_deleted":"0","num_feature":"44","num_nodes":"53","size_leaf_vector":"1"}},{"base_weights":[-1.1366381E-1,1.8983939E0,-7.2592914E-1,1.8599027E0,1.9033129E0,-8.1527394E-1,1.2365233E0,1.8704355E0,1.5257816E0,1.7444402E0,1.9045364E0,2.1737364E-1,-8.835144E-1,7.7059233E-1,1.934936E0,1.8148322E0,1.9105996E0,3.705661E-1,5.2597475E-1,1.2822175E0,2.0008821E0,1.8829125E0,1.9065762E0,3.8301873E-1,-6.699287E-1,3.6981708E-1,-9.2510355E-1,1.0765977E0,-1.7838962E-1,1.9506633E0,4.1386765E-1,1.9307839E0,1.7562562E0,1.8963082E0,1.913697E0,1.4850634E-1,6.0207355E-1,6.324934E-1,5.6839085E-1,1.8104954E0,1.9086264E0,1.9031626E0,1.9080484E0,-4.9731615E-1,5.004265E-1,-9.869672E-1,5.6266946E-1,-5.4951876E-1,1.1073635E0,-9.4795066E-1,5.3059024E-1,1.3213844E0,-4.6407455E-1,-3.1059644E-1,5.706264E-1,2.0327816E0,1.9168248E0,6.159965E-1,5.750615E-1,5.941465E-1,5.174091E-1,5.732098E-1,5.5688626E-1,5.736136E-1,5.7984495E-1,5.692431E-1,5.1890945E-1,5.707452E-1,5.728667E-1,5.714589E-1,5.6631106E-1,5.756961E-1,5.723864E-1,3.6723528E-2,-2.2043283E-1,1.9652443E-1,-6.252367E-2,-3.283913E-1,-1.5680692E-1,4.4704983E-1,-1.9517401E-1,-1.8843086E-1,3.2481426E-1,4.0155274E-1,-1.0947165E-1,-2.9186454E-1,-3.0443822E-3,-1.3697115E-1,2.3053072E-1,5.063518E-1,2.4030396E-1,-2.1478288E-1,2.2201955E-1,4.1963136E-1,-1.4286295E-1,5.869628E-1,7.5959235E-1,5.620893E-1,5.8810365E-1],"categories":[],"categories_nodes":[],"categories_segments":[],"categories_sizes":[],"default_left":[0,0,0,0,0,0,0,0,0,0,0,0,0,0,0,0,0,0,0,0,0,0,0,0,0,0,0,0,0,0,0,0,0,0,0,0,0,0,0,0,0,0,0,0,0,0,0,0,0,0,0,0,0,0,0,0,0,0,0,0,0,0,0,0,0,0,0,0,0,0,0,0,0,0,0,0,0,0,0,0,0,0,0,0,0,0,0,0,0,0,0,0,0,0,0,0,0,0,0],"id":1,"left_children":[1,3,5,7,9,11,13,15,17,19,21,23,25,27,29,31,33,-1,-1,35,37,39,41,43,45,47,49,51,53,55,-1,57,59,61,63,-1,-1,-1,-1,65,67,69,71,73,75,77,79,81,83,85,87,89,91,93,-1,95,97,-1,-1,-1,-1,-1,-1,-1,-1,-1,-1,-1,-1,-1,-1,-1,-1,-1,-1,-1,-1,-1,-1,-1,-1,-1,-1,-1,-1,-1,-1,-1,-1,-1,-1,-1,-1,-1,-1,-1,-1,-1,-1],"loss_changes":[7.389316E4,2.6484375E0,8.0633535E3,5.5791016E0,2.4101562E0,3.0996016E3,6.516509E2,3.4316406E0,3.2020035E0,1.1238312E1,5.4296875E-1,4.007381E2,2.1506367E3,3.4881946E2,6.998291E0,4.3776855E0,3.8330078E-2,0E0,0E0,1.9301605E1,6.946411E-1,1.9753418E0,5.859375E-2,2.374762E2,1.6761623E2,8.985071E2,1.3281445E3,3.4255518E2,8.055942E1,2.1640625E0,0E0,3.675537E-1,3.0300293E0,9.020996E-2,2.1484375E-2,0E0,0E0,0E0,0E0,1.9535522E0,3.1738281E-3,8.7890625E-2,5.859375E-3,3.978752E1,2.2223712E2,1.705423E1,9.8747665E1,7.566083E1,2.5021545E2,9.1925E2,1.4488559E2,1.494596E2,3.7767624E1,7.7960655E1,0E0,8.653015E0,1.0361328E0,0E0,0E0,0E0,0E0,0E0,0E0,0E0,0E0,0E0,0E0,0E0,0E0,0E0,0E0,0E0,0E0,0E0,0E0,0E0,0E0,0E0,0E0,0E0,0E0,0E0,0E0,0E0,0E0,0E0,0E0,0E0,0E0,0E0,0E0,0E0,0E0,0E0,0E0,0E0,0E0,0E0,0E0],"parents":[2147483647,0,0,1,1,2,2,3,3,4,4,5,5,6,6,7,7,8,8,9,9,10,10,11,11,12,12,13,13,14,14,15,15,16,16,19,19,20,20,21,21,22,22,23,23,24,24,25,25,26,26,27,27,28,28,29,29,31,31,32,32,33,33,34,34,39,39,40,40,41,41,42,42,43,43,44,44,45,45,46,46,47,47,48,48,49,49,50,50,51,51,52,52,53,53,55,55,56,56],"right_children":[2,4,6,8,10,12,14,16,18,20,22,24,26,28,30,32,34,-1,-1,36,38,40,42,44,46,48,50,52,54,56,-1,58,60,62,64,-1,-1,-1,-1,66,68,70,72,74,76,78,80,82,84,86,88,90,92,94,-1,96,98,-1,-1,-1,-1,-1,-1,-1,-1,-1,-1,-1,-1,-1,-1,-1,-1,-1,-1,-1,-1,-1,-1,-1,-1,-1,-1,-1,-1,-1,-1,-1,-1,-1,-1,-1,-1,-1,-1,-1,-1,-1,-1],"split_conditions":[1E0,2.7E1,1E0,6E0,7E0,3E0,1E0,1E0,2.4E1,2E0,6E0,2E0,1.3432837E-1,1E0,6E0,3E0,2E1,3.705661E-1,5.2597475E-1,1.0638298E-1,5.7E1,1E0,4.2E1,1.2E1,1.2E1,5.940594E-2,6E0,3E0,2.2E1,1.2E1,4.1386765E-1,5E0,5E0,2.7272728E-1,1.4E1,1.4850634E-1,6.0207355E-1,6.324934E-1,5.6839085E-1,1.8E1,2.8E1,6E0,8E0,3.1E1,2E0,2E1,1.6842106E-1,5E0,2E0,5E0,8E0,1E0,4E0,3E0,5.706264E-1,2E0,9.2307694E-2,6.159965E-1,5.750615E-1,5.941465E-1,5.174091E-1,5.732098E-1,5.5688626E-1,5.736136E-1,5.7984495E-1,5.692431E-1,5.1890945E-1,5.707452E-1,5.728667E-1,5.714589E-1,5.6631106E-1,5.756961E-1,5.723864E-1,3.6723528E-2,-2.2043283E-1,1.9652443E-1,-6.252367E-2,-3.283913E-1,-1.5680692E-1,4.4704983E-1,-1.9517401E-1,-1.8843086E-1,3.2481426E-1,4.0155274E-1,-1.0947165E-1,-2.9186454E-1,-3.0443822E-3,-1.3697115E-1,2.3053072E-1,5.063518E-1,2.4030396E-1,-2.1478288E-1,2.2201955E-1,4.1963136E-1,-1.4286295E-1,5.869628E-1,7.5959235E-1,5.620893E-1,5.8810365E-1],"split_indices":[1,8,32,38,9,38,33,12,8,38,14,18,27,35,18,38,8,0,0,26,8,12,8,9,12,26,38,18,12,14,0,14,14,27,9,0,0,0,0,9,8,38,9,8,1,9,27,16,18,16,14,36,16,38,0,18,26,0,0,0,0,0,0,0,0,0,0,0,0,0,0,0,0,0,0,0,0,0,0,0,0,0,0,0,0,0,0,0,0,0,0,0,0,0,0,0,0,0,0],"split_type":[0,0,0,0,0,0,0,0,0,0,0,0,0,0,0,0,0,0,0,0,0,0,0,0,0,0,0,0,0,0,0,0,0,0,0,0,0,0,0,0,0,0,0,0,0,0,0,0,0,0,0,0,0,0,0,0,0,0,0,0,0,0,0,0,0,0,0,0,0,0,0,0,0,0,0,0,0,0,0,0,0,0,0,0,0,0,0,0,0,0,0,0,0,0,0,0,0,0,0],"sum_hessian":[5.9982438E4,1.3994148E4,4.598829E4,1.5857775E3,1.2408371E4,4.3985746E4,2.0025447E3,1.5373143E3,4.84632E1,9.48214E1,1.231355E4,2.7265315E3,4.1259215E4,1.2011943E3,8.013503E2,6.447409E2,8.925734E2,2.128099E1,2.7182209E1,3.383576E1,6.0985645E1,1.0614598E3,1.125209E4,2.2976057E3,4.289257E2,1.3251283E3,3.9934086E4,9.083057E2,2.9288867E2,7.7928174E2,2.206858E1,2.163897E2,4.2835123E2,1.5901328E2,7.335601E2,1.6218725E1,1.7617031E1,3.0322346E1,3.06633E1,2.7814474E2,7.8331506E2,3.3907278E3,7.861362E3,2.703666E2,2.0272391E3,3.411725E2,8.775322E1,5.8986884E2,7.3525946E2,3.9317004E4,6.1708093E2,7.8377704E2,1.2452865E2,2.753889E2,1.7499792E1,2.2740718E2,5.518746E2,2.206019E1,1.943295E2,5.284815E1,3.7550308E2,1.1695006E2,4.2063217E1,6.752423E2,5.831785E1,1.3394397E2,1.4420076E2,1.02959526E2,6.803555E2,3.0547627E3,3.3596503E2,6.686351E1,7.7944985E3,7.489709E1,1.9546951E2,1.6641534E3,3.6308572E2,2.769454E2,6.422708E1,4.973355E1,3.8019665E1,5.6277423E2,2.7094608E1,6.354883E2,9.9771164E1,3.8298848E4,1.01815845E3,1.19811264E2,4.9726965E2,4.599037E2,3.2387335E2,1.0298724E2,2.1541407E1,2.4324366E1,2.5106453E2,1.9727858E2,3.0128597E1,2.769814E2,2.7489313E2],"tree_param":{"num_deleted":"0","num_feature":"44","num_nodes":"99","size_leaf_vector":"1"}},{"base_weights":[-1.05645955E-1,1.4991966E0,-6.213266E-1,1.4489217E0,1.5057071E0,2.4789509E-1,-7.45964E-1,1.3661255E0,1.5129309E0,1.4796985E0,1.5081629E0,1.7223889E-1,1.3645527E0,-7.981411E-1,6.149347E-1,1.4674286E0,1.271561E0,1.4984035E0,1.5160321E0,1.3912803E0,1.5120009E0,1.503007E0,1.511548E0,1.1181642E-1,1.3812287E0,1.5223415E0,9.639719E-1,-8.091796E-1,1.4941579E0,2.6178938E-1,1.2934214E0,1.5383915E0,1.0404472E0,1.1743218E0,1.4946002E0,1.4625916E0,4.5498517E-1,1.5224123E0,1.5118724E0,1.5302866E0,1.3499509E0,1.5053867E0,4.5389998E-1,1.4987434E0,1.5126704E0,1.5100812E0,1.5133668E0,1.7725149E-1,-5.828276E-1,1.6569587E0,7.350958E-1,1.0157502E0,1.621493E0,2.0224534E-2,1.4035285E0,-8.3118725E-1,5.9398646E-3,1.3492794E0,6.905041E-1,6.643764E-1,-6.755334E-1,1.1377678E0,1.5660572E0,4.7332427E-1,4.5948377E-1,2.1432625E-1,3.8696662E-1,4.7486898E-1,3.228049E-1,4.2797178E-1,4.543319E-1,4.4632274E-1,4.2439497E-1,4.5552358E-1,4.6332458E-1,4.524792E-1,4.548913E-1,4.490149E-1,4.6328637E-1,4.2224735E-1,3.975568E-1,4.4650272E-1,4.540444E-1,4.5057774E-1,4.4433695E-1,4.5324507E-1,4.5680478E-1,4.5329592E-1,4.4982347E-1,4.5829934E-1,4.5396096E-1,7.744606E-2,-1.136733E-1,-2.206908E-1,7.077309E-2,5.0721E-1,4.2448932E-1,6.1276334E-4,4.6117228E-1,4.895748E-1,1.2649965E-1,5.508288E-1,4.6442667E-1,3.5638955E-1,5.447801E-1,-2.2927734E-1,-3.215129E-1,3.7065277E-1,-2.3683327E-1,4.5872983E-1,2.609149E-1,2.8163227E-1,-1.5693246E-1,-2.8485438E-1,3.592833E-1,2.3216063E-1,4.3243995E-1,4.4003952E-1,5.941102E-1],"categories":[],"categories_nodes":[],"categories_segments":[],"categories_sizes":[],"default_left":[0,0,0,0,0,0,0,0,0,0,0,0,0,0,0,0,0,0,0,0,0,0,0,0,0,0,0,0,0,0,0,0,0,0,0,0,0,0,0,0,0,0,0,0,0,0,0,0,0,0,0,0,0,0,0,0,0,0,0,0,0,0,0,0,0,0,0,0,0,0,0,0,0,0,0,0,0,0,0,0,0,0,0,0,0,0,0,0,0,0,0,0,0,0,0,0,0,0,0,0,0,0,0,0,0,0,0,0,0,0,0,0,0,0,0,0,0,0,0],"id":2,"left_children":[1,3,5,7,9,11,13,15,17,19,21,23,25,27,29,31,33,35,37,39,41,43,45,47,49,51,53,55,57,59,61,63,65,67,69,71,-1,73,75,77,79,81,-1,83,85,87,89,91,93,95,97,99,101,-1,103,105,107,109,-1,111,113,115,117,-1,-1,-1,-1,-1,-1,-1,-1,-1,-1,-1,-1,-1,-1,-1,-1,-1,-1,-1,-1,-1,-1,-1,-1,-1,-1,-1,-1,-1,-1,-1,-1,-1,-1,-1,-1,-1,-1,-1,-1,-1,-1,-1,-1,-1,-1,-1,-1,-1,-1,-1,-1,-1,-1,-1,-1],"loss_changes":[4.290305E4,4.126953E0,4.2505303E3,7.6589355E0,7.109375E-1,4.1567297E2,2.4365566E3,6.036377E0,3.564453E-2,2.7492676E0,1.7773438E-1,3.366182E2,1.9732727E1,8.361992E2,3.0358395E2,9.218384E0,7.0682983E0,9.246826E-2,1.6723633E-2,1.4792786E0,3.2958984E-3,1.6503906E-1,1.5625E-2,1.9948477E2,3.9075836E1,1.124939E1,3.4768394E1,5.899824E2,1.852716E1,3.144492E2,1.8404846E1,6.842041E-2,3.5256996E0,9.116211E0,1.3250732E-1,5.7250977E-2,0E0,2.2277832E-2,5.3710938E-3,2.6641846E-2,2.8204346E-1,1.1672974E-2,0E0,1.5625E-1,2.1728516E-2,3.173828E-2,4.3945312E-3,1.8046869E2,4.7269623E1,1.2541504E0,3.857581E1,1.3419872E1,2.949524E0,0E0,5.261879E0,5.155215E2,8.455828E2,1.1578918E1,0E0,1.8994354E2,1.2849228E2,3.0512115E1,6.481018E0,0E0,0E0,0E0,0E0,0E0,0E0,0E0,0E0,0E0,0E0,0E0,0E0,0E0,0E0,0E0,0E0,0E0,0E0,0E0,0E0,0E0,0E0,0E0,0E0,0E0,0E0,0E0,0E0,0E0,0E0,0E0,0E0,0E0,0E0,0E0,0E0,0E0,0E0,0E0,0E0,0E0,0E0,0E0,0E0,0E0,0E0,0E0,0E0,0E0,0E0,0E0,0E0,0E0,0E0,0E0,0E0],"parents":[2147483647,0,0,1,1,2,2,3,3,4,4,5,5,6,6,7,7,8,8,9,9,10,10,11,11,12,12,13,13,14,14,15,15,16,16,17,17,18,18,19,19,20,20,21,21,22,22,23,23,24,24,25,25,26,26,27,27,28,28,29,29,30,30,31,31,32,32,33,33,34,34,35,35,37,37,38,38,39,39,40,40,41,41,43,43,44,44,45,45,46,46,47,47,48,48,49,49,50,50,51,51,52,52,54,54,55,55,56,56,57,57,59,59,60,60,61,61,62,62],"right_children":[2,4,6,8,10,12,14,16,18,20,22,24,26,28,30,32,34,36,38,40,42,44,46,48,50,52,54,56,58,60,62,64,66,68,70,72,-1,74,76,78,80,82,-1,84,86,88,90,92,94,96,98,100,102,-1,104,106,108,110,-1,112,114,116,118,-1,-1,-1,-1,-1,-1,-1,-1,-1,-1,-1,-1,-1,-1,-1,-1,-1,-1,-1,-1,-1,-1,-1,-1,-1,-1,-1,-1,-1,-1,-1,-1,-1,-1,-1,-1,-1,-1,-1,-1,-1,-1,-1,-1,-1,-1,-1,-1,-1,-1,-1,-1,-1,-1,-1,-1],"split_conditions":[1E0,2.7E1,1E0,1E0,6E0,1.7E1,1.8E1,1E0,2E1,1E0,4.7E1,6E0,1.8E1,1E0,3E1,2E0,6E0,1.1904762E-1,2.4E1,1E0,2.8E1,2.5641026E-2,7.3E1,4E0,2E0,3.8E1,2.3E1,5E0,1E0,4E0,3E0,1.4E1,1.8E1,3E0,2.3E1,2E0,4.5498517E-1,1.6E1,6E0,2.4E1,2.9E1,2E0,4.5389998E-1,9E0,1E0,2E0,4.1E1,2E0,1.2E1,2E0,4E0,6.4E1,3E0,2.0224534E-2,1.47E2,2E0,2E0,2E0,6.905041E-1,2E0,1.64E2,4.2E1,7E0,4.7332427E-1,4.5948377E-1,2.1432625E-1,3.8696662E-1,4.7486898E-1,3.228049E-1,4.2797178E-1,4.543319E-1,4.4632274E-1,4.2439497E-1,4.5552358E-1,4.6332458E-1,4.524792E-1,4.548913E-1,4.490149E-1,4.6328637E-1,4.2224735E-1,3.975568E-1,4.4650272E-1,4.540444E-1,4.5057774E-1,4.4433695E-1,4.5324507E-1,4.5680478E-1,4.5329592E-1,4.4982347E-1,4.5829934E-1,4.5396096E-1,7.744606E-2,-1.136733E-1,-2.206908E-1,7.077309E-2,5.0721E-1,4.2448932E-1,6.1276334E-4,4.6117228E-1,4.895748E-1,1.2649965E-1,5.508288E-1,4.6442667E-1,3.5638955E-1,5.447801E-1,-2.2927734E-1,-3.215129E-1,3.7065277E-1,-2.3683327E-1,4.5872983E-1,2.609149E-1,2.8163227E-1,-1.5693246E-1,-2.8485438E-1,3.592833E-1,2.3216063E-1,4.3243995E-1,4.4003952E-1,5.941102E-1],"split_indices":[1,7,39,12,14,12,12,39,7,12,7,16,14,34,12,16,14,26,7,39,7,26,7,17,1,13,12,16,36,17,19,13,13,21,7,12,0,13,14,13,7,12,0,14,17,17,13,1,12,17,1,7,16,0,13,1,1,1,0,1,7,12,21,0,0,0,0,0,0,0,0,0,0,0,0,0,0,0,0,0,0,0,0,0,0,0,0,0,0,0,0,0,0,0,0,0,0,0,0,0,0,0,0,0,0,0,0,0,0,0,0,0,0,0,0,0,0,0,0],"split_type":[0,0,0,0,0,0,0,0,0,0,0,0,0,0,0,0,0,0,0,0,0,0,0,0,0,0,0,0,0,0,0,0,0,0,0,0,0,0,0,0,0,0,0,0,0,0,0,0,0,0,0,0,0,0,0,0,0,0,0,0,0,0,0,0,0,0,0,0,0,0,0,0,0,0,0,0,0,0,0,0,0,0,0,0,0,0,0,0,0,0,0,0,0,0,0,0,0,0,0,0,0,0,0,0,0,0,0,0,0,0,0,0,0,0,0,0,0,0,0],"sum_hessian":[5.1841184E4,1.2607027E4,3.9234156E4,1.4454072E3,1.116162E4,4.920257E3,3.43139E4,6.3022003E2,8.1518726E2,9.629627E2,1.0198657E4,4.608051E3,3.1220602E2,3.3046875E4,1.2670242E3,3.0426718E2,3.2595288E2,1.4343387E2,6.7175336E2,2.5767163E2,7.052911E2,4.0422192E3,6.156438E3,4.3887134E3,2.1933727E2,2.2397958E2,8.822645E1,3.2888504E4,1.5837308E2,8.333004E2,4.337237E2,2.6090475E2,4.3362404E1,2.2699193E2,9.896096E1,4.8362423E1,9.507145E1,2.6508405E2,4.066693E2,5.9051197E1,1.9862044E2,9.259614E1,6.1269495E2,2.8047476E3,1.2374716E3,3.4081174E3,2.7483206E3,4.0108906E3,3.77823E2,1.537329E2,6.560438E1,3.6662865E1,1.8731673E2,2.9025137E1,5.920131E1,3.202388E4,8.646217E2,1.3428188E2,2.4091211E1,5.829287E2,2.5037175E2,2.7609592E2,1.5762778E2,3.8329136E1,2.2257562E2,1.8796434E1,2.4565971E1,4.402259E1,1.8296933E2,2.2348412E1,7.661255E1,3.1716185E1,1.6646238E1,2.2431644E2,4.0767593E1,2.242039E2,1.8246542E2,1.7387558E1,4.166364E1,5.975327E1,1.3886716E2,2.9829645E1,6.2766495E1,2.3756685E3,4.290791E2,1.0441951E3,1.9327649E2,3.1415627E3,2.6655475E2,3.107783E1,2.717243E3,3.5015405E3,5.0935016E2,3.1839798E2,5.942502E1,1.3491957E2,1.8813324E1,3.427869E1,3.1325684E1,1.7996675E1,1.866619E1,4.774E1,1.3957672E2,3.8879795E1,2.0321512E1,2.5052574E4,6.971307E3,3.3961606E2,5.250056E2,9.766141E1,3.6620464E1,4.735122E2,1.0941648E2,2.1842355E2,3.1948195E1,1.2560008E2,1.5049583E2,1.27163345E2,3.0464432E1],"tree_param":{"num_deleted":"0","num_feature":"44","num_nodes":"119","size_leaf_vector":"1"}},{"base_weights":[-9.1177985E-2,1.307208E0,-5.226186E-1,1.2403557E0,1.3160253E0,-6.044722E-1,9.4874203E-1,1.1372837E0,1.3235712E0,1.0495621E0,1.3182311E0,4.7031328E-2,-7.080497E-1,8.0877364E-1,1.4225433E0,1.3092337E0,1.0633101E0,1.3067689E0,1.3271699E0,1.2547547E-1,1.3087422E0,1.2979777E0,1.3227994E0,-4.256248E-2,1.0586514E0,-7.418822E-1,5.867758E-1,1.297391E0,6.3888985E-1,1.3590213E0,1.4892304E0,1.3362173E0,1.2599111E0,1.0935732E0,2.1488501E-1,3.9825317E-1,3.7513614E-1,1.3287619E0,3.8917133E-1,4.1395584E-1,3.745399E-1,1.3207997E0,1.1836778E0,1.3238175E0,1.3098142E0,-2.9284424E-1,1.04109034E-1,1.2987379E0,4.1315848E-1,1.337991E0,-7.577014E-1,2.8201003E0,3.546244E-1,1.3798747E0,9.718536E-1,4.1093814E-1,1.2428384E0,1.4264551E0,1.2966709E0,1.5109252E0,3.774797E-1,4.0507433E-1,3.929875E-1,3.948518E-1,3.4426373E-1,4.0166235E-1,3.0719626E-1,3.9831063E-1,4.072631E-1,3.9785504E-1,3.9304808E-1,3.409841E-1,3.945098E-1,3.9495954E-1,3.973813E-1,3.1363708E-1,3.977764E-1,3.669557E-2,-1.577462E-1,7.251503E-2,-1.6183643E-1,2.692743E-1,5.015016E-1,4.071069E-1,-2.083996E-2,2.502459E-1,5.104401E-1,-2.2787355E-2,-2.3518187E-1,1.0208582E0,4.5937037E-1,-1.4335506E-1,2.398926E-1,3.9617297E-1,4.4748428E-1,3.9454272E-1,9.864578E-2,1.574558E-1,-2.2607748E-1,1.659455E-1,4.4391915E-1,4.406128E-1,4.1417947E-1,4.0263924E-1,3.1178173E-1,4.7264344E-1,4.3599463E-1],"categories":[],"categories_nodes":[],"categories_segments":[],"categories_sizes":[],"default_left":[0,0,0,0,0,0,0,0,0,0,0,0,0,0,0,0,0,0,0,0,0,0,0,0,0,0,0,0,0,0,0,0,0,0,0,0,0,0,0,0,0,0,0,0,0,0,0,0,0,0,0,0,0,0,0,0,0,0,0,0,0,0,0,0,0,0,0,0,0,0,0,0,0,0,0,0,0,0,0,0,0,0,0,0,0,0,0,0,0,0,0,0,0,0,0,0,0,0,0,0,0,0,0,0,0,0,0],"id":3,"left_children":[1,3,5,7,9,11,13,15,17,19,21,23,25,27,29,31,33,35,37,-1,39,41,43,45,47,49,51,53,55,57,59,61,63,65,-1,-1,-1,67,-1,-1,-1,69,71,73,75,77,79,81,83,85,87,89,91,93,95,97,99,101,103,105,-1,-1,-1,-1,-1,-1,-1,-1,-1,-1,-1,-1,-1,-1,-1,-1,-1,-1,-1,-1,-1,-1,-1,-1,-1,-1,-1,-1,-1,-1,-1,-1,-1,-1,-1,-1,-1,-1,-1,-1,-1,-1,-1,-1,-1,-1,-1],"loss_changes":[2.6798598E4,6.171875E0,4.0882578E3,1.0466553E1,5.4384766E0,2.169956E3,1.186344E2,6.9332275E0,3.9794922E-2,1.242971E1,8.496094E-1,3.9979416E2,1.2154502E3,1.1462964E2,1.7271118E0,2.1728516E-1,4.002411E0,1.3821411E-1,2.557373E-2,0E0,2.2989655E-1,4.404785E0,9.765625E-2,1.4875154E2,5.5616302E1,8.8963574E2,3.6629773E2,9.565369E0,1.4106924E2,8.774719E-1,9.962158E-1,3.8101196E-2,3.6571503E-1,5.9835205E0,0E0,0E0,0E0,1.5136719E-2,0E0,0E0,0E0,7.93457E-2,1.736908E0,3.8085938E-2,2.3171997E0,1.448184E2,2.2626125E2,3.913333E1,4.432139E1,3.7376953E1,4.8001172E2,4.996472E1,2.3708926E2,1.8823853E0,1.5897972E1,9.868462E1,4.5873047E1,1.9348145E-1,1.2694702E0,6.754761E-1,0E0,0E0,0E0,0E0,0E0,0E0,0E0,0E0,0E0,0E0,0E0,0E0,0E0,0E0,0E0,0E0,0E0,0E0,0E0,0E0,0E0,0E0,0E0,0E0,0E0,0E0,0E0,0E0,0E0,0E0,0E0,0E0,0E0,0E0,0E0,0E0,0E0,0E0,0E0,0E0,0E0,0E0,0E0,0E0,0E0,0E0,0E0],"parents":[2147483647,0,0,1,1,2,2,3,3,4,4,5,5,6,6,7,7,8,8,9,9,10,10,11,11,12,12,13,13,14,14,15,15,16,16,17,17,18,18,20,20,21,21,22,22,23,23,24,24,25,25,26,26,27,27,28,28,29,29,30,30,31,31,32,32,33,33,37,37,41,41,42,42,43,43,44,44,45,45,46,46,47,47,48,48,49,49,50,50,51,51,52,52,53,53,54,54,55,55,56,56,57,57,58,58,59,59],"right_children":[2,4,6,8,10,12,14,16,18,20,22,24,26,28,30,32,34,36,38,-1,40,42,44,46,48,50,52,54,56,58,60,62,64,66,-1,-1,-1,68,-1,-1,-1,70,72,74,76,78,80,82,84,86,88,90,92,94,96,98,100,102,104,106,-1,-1,-1,-1,-1,-1,-1,-1,-1,-1,-1,-1,-1,-1,-1,-1,-1,-1,-1,-1,-1,-1,-1,-1,-1,-1,-1,-1,-1,-1,-1,-1,-1,-1,-1,-1,-1,-1,-1,-1,-1,-1,-1,-1,-1,-1,-1],"split_conditions":[1E0,2.7E1,1E0,1E0,7E0,1E0,2E0,3E0,2E1,4.0500135E0,3.4E1,4.685952E0,4.806349E0,1E0,2.4E1,3.7406015E0,6E0,2.7272728E-1,4.133661E0,1.2547547E-1,6E0,1.8E1,2.5E1,1.7E1,5E0,3E0,8.571429E-2,1E0,2.9E1,1E0,1.07E2,3.6258147E0,2.4242425E-1,1E0,2.1488501E-1,3.9825317E-1,3.7513614E-1,4E0,3.8917133E-1,4.1395584E-1,3.745399E-1,2.4E1,1E0,1.1E1,4E1,2.8E1,2E0,2.2E1,1.4736842E-1,2.1276595E-2,1.369863E-1,1.6438356E-1,1.7E1,2.4E1,5E0,2E0,1.2987013E-2,1.19E2,2E1,2E0,3.774797E-1,4.0507433E-1,3.929875E-1,3.948518E-1,3.4426373E-1,4.0166235E-1,3.0719626E-1,3.9831063E-1,4.072631E-1,3.9785504E-1,3.9304808E-1,3.409841E-1,3.945098E-1,3.9495954E-1,3.973813E-1,3.1363708E-1,3.977764E-1,3.669557E-2,-1.577462E-1,7.251503E-2,-1.6183643E-1,2.692743E-1,5.015016E-1,4.071069E-1,-2.083996E-2,2.502459E-1,5.104401E-1,-2.2787355E-2,-2.3518187E-1,1.0208582E0,4.5937037E-1,-1.4335506E-1,2.398926E-1,3.9617297E-1,4.4748428E-1,3.9454272E-1,9.864578E-2,1.574558E-1,-2.2607748E-1,1.659455E-1,4.4391915E-1,4.406128E-1,4.1417947E-1,4.0263924E-1,3.1178173E-1,4.7264344E-1,4.3599463E-1],"split_indices":[1,7,32,12,9,39,32,38,7,30,7,30,30,39,9,30,38,27,30,0,9,9,9,9,38,38,26,36,9,36,11,30,27,39,0,0,0,38,0,0,0,13,12,9,7,13,1,9,27,26,27,27,9,9,38,1,26,7,9,1,0,0,0,0,0,0,0,0,0,0,0,0,0,0,0,0,0,0,0,0,0,0,0,0,0,0,0,0,0,0,0,0,0,0,0,0,0,0,0,0,0,0,0,0,0,0,0],"split_type":[0,0,0,0,0,0,0,0,0,0,0,0,0,0,0,0,0,0,0,0,0,0,0,0,0,0,0,0,0,0,0,0,0,0,0,0,0,0,0,0,0,0,0,0,0,0,0,0,0,0,0,0,0,0,0,0,0,0,0,0,0,0,0,0,0,0,0,0,0,0,0,0,0,0,0,0,0,0,0,0,0,0,0,0,0,0,0,0,0,0,0,0,0,0,0,0,0,0,0,0,0,0,0,0,0,0,0],"sum_hessian":[4.441851E4,1.0473096E4,3.3945414E4,1.2203633E3,9.252732E3,3.2156508E4,1.7889069E3,5.4514374E2,6.752195E2,7.596931E1,9.176764E3,4.411036E3,2.7745473E4,1.3809525E3,4.0795435E2,1.6397722E2,3.8116653E2,1.1912711E2,5.560924E2,2.211151E1,5.3857796E1,1.6889603E3,7.4878027E3,4.0521577E3,3.588784E2,2.703897E4,7.065003E2,3.5626523E2,1.0246873E3,2.0893832E2,1.99016E2,1.05986244E2,5.7990974E1,3.5059155E2,3.0574974E1,8.7056625E1,3.2070488E1,5.2799677E2,2.8095638E1,2.4705406E1,2.9152391E1,1.4078535E3,2.8110675E2,6.9434136E3,5.443892E2,1.4972455E3,2.554912E3,2.6158365E2,9.729472E1,2.0410207E2,2.683487E4,6.652455E1,6.3997577E2,2.842434E2,7.2021835E1,7.439097E2,2.807775E2,1.0037452E2,1.08563805E2,1.8192601E2,1.7090008E1,6.906873E1,3.691751E1,3.8640423E1,1.9350552E1,7.747468E1,2.7311688E2,5.0925644E2,1.874032E1,9.347979E2,4.7305566E2,2.0695712E2,7.414963E1,6.7681067E2,6.266603E3,3.1265621E1,5.131236E2,5.381907E2,9.5905475E2,2.1048506E3,4.500616E2,1.2602372E2,1.3555994E2,3.2918034E1,6.4376686E1,8.553597E1,1.1856609E2,9.945126E2,2.5840357E4,4.5810898E1,2.0713657E1,2.2293689E2,4.1703888E2,1.8569923E2,9.854416E1,4.6954346E1,2.5067493E1,6.776247E2,6.6285065E1,7.1784874E1,2.0899263E2,5.2235313E1,4.8139206E1,9.2266914E1,1.6296892E1,8.579007E1,9.613593E1],"tree_param":{"num_deleted":"0","num_feature":"44","num_nodes":"107","size_leaf_vector":"1"}},{"base_weights":[-7.702941E-2,1.5534399E0,-9.659917E-1,1.2189333E0,2.057722E0,5.733885E-1,-9.8699534E-1,1.1739997E0,1.2218794E0,1.672581E0,2.2970812E0,-5.796506E-2,1.0797708E0,-1.0261266E0,-3.3557242E-1,-5.6349628E-2,1.2204162E0,1.2361217E0,1.220249E0,1.7326701E0,1.540932E0,2.6099334E0,1.8189149E0,1.114486E0,-5.611457E-1,2.0263796E-1,1.1507759E0,-1.0361493E0,-2.086641E-1,1.2033362E0,-6.7724425E-1,1.2194444E0,3.7409046E-1,1.2529937E0,1.2194753E0,1.2233315E0,1.219602E0,1.7124531E0,1.9883909E0,1.5979139E0,1.3652605E0,1.6698737E0,2.6782675E0,2.0453172E0,1.4911002E0,3.7542775E-1,3.0032042E-1,-7.9413426E-1,7.314319E-2,1.0163094E0,1.1974657E0,-8.284404E-1,-1.0534587E0,-6.450955E-1,4.7385442E-1,-9.6935457E-1,4.7956777E0,5.7446134E-1,-7.999385E-1,3.6565605E-1,3.6697614E-1,3.6591715E-1,3.8002345E-1,3.6562884E-1,3.6799684E-1,3.6800057E-1,3.658235E-1,3.6633816E-1,3.6575997E-1,4.953169E-1,5.420944E-1,6.4027816E-1,4.8876524E-1,4.9592987E-1,4.2360133E-1,3.913076E-1,4.3596774E-1,4.8749232E-1,5.5316395E-1,8.1992435E-1,5.4976845E-1,6.6132915E-1,4.9336457E-1,4.1335914E-1,5.139302E-1,-3.3737245E-1,-1.679415E-1,3.4343806E-1,2.656552E-1,3.4515136E-1,3.6627418E-1,3.235268E-2,-2.7229086E-1,-3.1630984E-1,-2.7599903E-2,2.1950621E-2,-2.5545776E-1,5.4109997E-1,-1.4234413E-1,-3.2856503E-1,-1.7853348E-2,2.1678205E0,-1.5148997E-1,4.9535924E-1,-7.362731E-2,-2.6961195E-1,1.2817181E-2],"categories":[],"categories_nodes":[],"categories_segments":[],"categories_sizes":[],"default_left":[0,0,0,0,0,0,0,0,0,0,0,0,0,0,0,0,0,0,0,0,0,0,0,0,0,0,0,0,0,0,0,0,0,0,0,0,0,0,0,0,0,0,0,0,0,0,0,0,0,0,0,0,0,0,0,0,0,0,0,0,0,0,0,0,0,0,0,0,0,0,0,0,0,0,0,0,0,0,0,0,0,0,0,0,0,0,0,0,0,0,0,0,0,0,0,0,0,0,0,0,0,0,0,0,0,0,0],"id":4,"left_children":[1,3,5,7,9,11,13,15,17,19,21,23,25,27,29,-1,31,33,35,37,39,41,43,45,47,-1,49,51,53,55,57,59,-1,61,63,65,67,69,71,73,75,77,79,81,83,-1,-1,85,-1,87,89,91,93,95,97,99,101,103,105,-1,-1,-1,-1,-1,-1,-1,-1,-1,-1,-1,-1,-1,-1,-1,-1,-1,-1,-1,-1,-1,-1,-1,-1,-1,-1,-1,-1,-1,-1,-1,-1,-1,-1,-1,-1,-1,-1,-1,-1,-1,-1,-1,-1,-1,-1,-1,-1],"loss_changes":[5.4972332E4,2.2573906E3,7.9359375E2,1.0644531E0,4.9198242E2,1.0562668E2,6.1724805E2,3.1292053E1,1.7285156E-1,1.6180176E1,4.9236133E2,8.675106E1,5.262619E0,1.8715039E2,7.2147406E2,0E0,1.1413574E-2,2.1691895E-1,1.3671875E-2,7.2597656E0,6.4158936E0,1.2780469E2,9.661084E1,6.850052E-1,1.9296814E1,0E0,9.7828674E-1,8.113086E1,8.241226E1,1.9457704E3,1.7244342E2,1.2207031E-4,0E0,1.7529297E-1,1.0986328E-3,1.4282227E-2,2.9296875E-3,7.5527344E0,5.3896484E0,4.9648438E0,8.400879E-1,1.0520935E0,8.597754E1,4.9097168E1,1.3366821E1,0E0,0E0,6.1780434E0,0E0,6.747284E-1,1.2660217E-1,1.2871301E2,1.8169922E1,2.5022354E1,1.3608762E2,1.778865E1,1.2103687E3,8.849017E1,8.510986E1,0E0,0E0,0E0,0E0,0E0,0E0,0E0,0E0,0E0,0E0,0E0,0E0,0E0,0E0,0E0,0E0,0E0,0E0,0E0,0E0,0E0,0E0,0E0,0E0,0E0,0E0,0E0,0E0,0E0,0E0,0E0,0E0,0E0,0E0,0E0,0E0,0E0,0E0,0E0,0E0,0E0,0E0,0E0,0E0,0E0,0E0,0E0,0E0],"parents":[2147483647,0,0,1,1,2,2,3,3,4,4,5,5,6,6,7,7,8,8,9,9,10,10,11,11,12,12,13,13,14,14,16,16,17,17,18,18,19,19,20,20,21,21,22,22,23,23,24,24,26,26,27,27,28,28,29,29,30,30,31,31,33,33,34,34,35,35,36,36,37,37,38,38,39,39,40,40,41,41,42,42,43,43,44,44,47,47,49,49,50,50,51,51,52,52,53,53,54,54,55,55,56,56,57,57,58,58],"right_children":[2,4,6,8,10,12,14,16,18,20,22,24,26,28,30,-1,32,34,36,38,40,42,44,46,48,-1,50,52,54,56,58,60,-1,62,64,66,68,70,72,74,76,78,80,82,84,-1,-1,86,-1,88,90,92,94,96,98,100,102,104,106,-1,-1,-1,-1,-1,-1,-1,-1,-1,-1,-1,-1,-1,-1,-1,-1,-1,-1,-1,-1,-1,-1,-1,-1,-1,-1,-1,-1,-1,-1,-1,-1,-1,-1,-1,-1,-1,-1,-1,-1,-1,-1,-1,-1,-1,-1,-1,-1],"split_conditions":[1E0,1E0,1E0,2E0,1E0,3.5E1,1E0,5E0,2.7E1,6.8E1,6.9E1,3E0,4.1E1,4.856452E0,4.162058E0,-5.6349628E-2,1.9E1,1E0,3.4E1,2E0,1.7E1,3E0,1.8E1,2.2857143E-1,3.988309E0,2.0263796E-1,4.1909294E0,1.4736842E-1,9.9E1,8E0,1.4117648E-1,1.1E1,3.7409046E-1,3E0,2.7272728E-1,1E0,4.2E1,3E0,4.4E1,6E0,1.3580246E-1,2E0,5E0,5E0,1.3580246E-1,3.7542775E-1,3.0032042E-1,3.7232313E0,7.314319E-2,1.7073171E-1,6.1E1,4.8E1,1E0,3E0,3E0,4.1E1,3E0,1E1,1.1E1,3.6565605E-1,3.6697614E-1,3.6591715E-1,3.8002345E-1,3.6562884E-1,3.6799684E-1,3.6800057E-1,3.658235E-1,3.6633816E-1,3.6575997E-1,4.953169E-1,5.420944E-1,6.4027816E-1,4.8876524E-1,4.9592987E-1,4.2360133E-1,3.913076E-1,4.3596774E-1,4.8749232E-1,5.5316395E-1,8.1992435E-1,5.4976845E-1,6.6132915E-1,4.9336457E-1,4.1335914E-1,5.139302E-1,-3.3737245E-1,-1.679415E-1,3.4343806E-1,2.656552E-1,3.4515136E-1,3.6627418E-1,3.235268E-2,-2.7229086E-1,-3.1630984E-1,-2.7599903E-2,2.1950621E-2,-2.5545776E-1,5.4109997E-1,-1.4234413E-1,-3.2856503E-1,-1.7853348E-2,2.1678205E0,-1.5148997E-1,4.9535924E-1,-7.362731E-2,-2.6961195E-1,1.2817181E-2],"split_indices":[4,1,1,38,39,8,36,12,8,8,8,38,8,30,30,0,14,12,8,1,12,38,12,27,30,0,30,27,13,14,27,14,0,38,27,12,8,38,13,15,27,1,15,15,27,0,0,30,0,27,8,8,20,15,24,8,15,12,11,0,0,0,0,0,0,0,0,0,0,0,0,0,0,0,0,0,0,0,0,0,0,0,0,0,0,0,0,0,0,0,0,0,0,0,0,0,0,0,0,0,0,0,0,0,0,0,0],"split_type":[0,0,0,0,0,0,0,0,0,0,0,0,0,0,0,0,0,0,0,0,0,0,0,0,0,0,0,0,0,0,0,0,0,0,0,0,0,0,0,0,0,0,0,0,0,0,0,0,0,0,0,0,0,0,0,0,0,0,0,0,0,0,0,0,0,0,0,0,0,0,0,0,0,0,0,0,0,0,0,0,0,0,0,0,0,0,0,0,0,0,0,0,0,0,0,0,0,0,0,0,0,0,0,0,0,0,0],"sum_hessian":[3.7926973E4,1.3382245E4,2.454473E4,8.045446E3,5.3367993E3,3.303855E2,2.4214344E4,4.9503128E2,7.5504146E3,2.0454938E3,3.2913054E3,1.4704732E2,1.8333817E2,2.2842203E4,1.3721414E3,1.6316212E1,4.7871506E2,7.754732E2,6.7749414E3,1.4044513E3,6.410425E2,1.9895748E3,1.3017305E3,4.415708E1,1.02890236E2,2.7388708E1,1.5594946E2,2.2565533E4,2.7666934E2,2.4929623E2,1.1228451E3,4.6182626E2,1.6888794E1,3.851142E2,3.9035898E2,1.1753981E3,5.599543E3,1.3015537E3,1.0289761E2,4.840356E2,1.5700688E2,1.3482423E2,1.8547506E3,7.69962E2,5.3176843E2,2.0002745E1,2.4154339E1,7.979471E1,2.3095526E1,4.0195236E1,1.1575422E2,1.7358511E3,2.0829682E4,1.687585E2,1.0791084E2,1.553429E2,9.395333E1,1.0023745E2,1.02260767E3,3.9988174E2,6.194454E1,1.1263219E2,2.72482E2,3.551716E2,3.51874E1,6.3484406E2,5.405541E2,1.1680681E3,4.431475E3,7.8905774E2,5.124959E2,7.3177414E1,2.97202E1,3.7324042E2,1.1079519E2,9.27774E1,6.4229485E1,1.0717229E2,2.7651949E1,1.7418534E3,1.128972E2,5.5114545E2,2.1881654E2,3.521485E2,1.7961995E2,3.3107075E1,4.6687637E1,2.0275122E1,1.9920115E1,3.8554276E1,7.719994E1,1.3537624E2,1.6004749E3,2.0810043E4,1.9639936E1,3.7673523E1,1.3108498E2,4.492071E1,6.2990135E1,1.364648E2,1.8878109E1,6.441746E1,2.9535873E1,4.3331577E1,5.6905872E1,9.153236E2,1.0728409E2],"tree_param":{"num_deleted":"0","num_feature":"44","num_nodes":"107","size_leaf_vector":"1"}},{"base_weights":[-8.611311E-2,1.1209819E0,-4.1633815E-1,1.0358422E0,1.1370578E0,-4.767718E-1,5.9877706E-1,8.521319E-1,1.1504377E0,1.0850937E0,1.1449183E0,-3.6765677E-1,-9.1326976E-1,6.9941586E-1,-5.0289315E-1,1.2262998E0,8.042678E-1,1.1514114E0,3.33913E-1,1.0582188E0,1.1433789E0,1.1254268E0,1.1481152E0,-2.6162028E-1,-7.995491E-1,-9.230849E-1,3.800358E-1,3.4450385E-1,9.673541E-1,-8.54866E-1,1.7289965E-1,3.5895532E-1,3.796833E-1,7.828081E-1,3.5794777E-1,1.1530179E0,1.1436019E0,1.0919635E0,8.6367315E-1,1.097918E0,1.1541055E0,1.1195133E0,1.1557919E0,1.1428101E0,1.1508702E0,-3.4050903E-1,6.5086263E-1,-8.1832236E-1,4.787337E-1,-9.3204594E-1,3.2338446E-1,5.99646E-1,-2.012223E-1,1.0709018E0,3.5726333E-1,-1.7789401E-1,-1.0025713E0,2.2837089E-1,2.848273E-1,3.4299994E-1,3.4647536E-1,3.2898474E-1,3.4574023E-1,2.8825945E-1,3.3020255E-1,3.304864E-1,1.2797746E-1,3.4834886E-1,3.0965066E-1,3.483674E-1,3.4579942E-1,3.2457435E-1,3.4005862E-1,3.4843296E-1,3.4606138E-1,3.4312713E-1,3.327676E-1,3.4075022E-1,3.453492E-1,6.1564047E-2,-1.1906349E-1,1.16479635E-1,3.0873972E-1,-2.5057077E-1,3.8582367E-1,-2.8318423E-1,-4.896669E-2,2.9225853E-1,-9.213797E-2,-1.2938888E-1,3.0067867E-1,3.5654187E-1,2.5168487E-1,-1.286447E-1,2.7078527E-1,-3.273241E-1,-2.4125338E-1],"categories":[],"categories_nodes":[],"categories_segments":[],"categories_sizes":[],"default_left":[0,0,0,0,0,0,0,0,0,0,0,0,0,0,0,0,0,0,0,0,0,0,0,0,0,0,0,0,0,0,0,0,0,0,0,0,0,0,0,0,0,0,0,0,0,0,0,0,0,0,0,0,0,0,0,0,0,0,0,0,0,0,0,0,0,0,0,0,0,0,0,0,0,0,0,0,0,0,0,0,0,0,0,0,0,0,0,0,0,0,0,0,0,0,0,0,0],"id":5,"left_children":[1,3,5,7,9,11,13,15,17,19,21,23,25,27,29,31,33,35,-1,37,39,41,43,45,47,49,-1,51,53,55,-1,-1,-1,57,-1,59,61,63,65,67,69,71,73,75,77,79,81,83,-1,85,-1,87,89,91,93,-1,95,-1,-1,-1,-1,-1,-1,-1,-1,-1,-1,-1,-1,-1,-1,-1,-1,-1,-1,-1,-1,-1,-1,-1,-1,-1,-1,-1,-1,-1,-1,-1,-1,-1,-1,-1,-1,-1,-1,-1,-1],"loss_changes":[1.2149128E4,8.959961E0,1.4681318E3,2.189038E1,2.2485352E0,1.0757773E3,1.4908597E2,7.15329E0,2.2460938E-2,1.1326904E0,2.9785156E-1,8.2753076E2,9.665405E1,1.1716785E2,4.2755295E1,5.214691E-2,2.9549255E0,6.958008E-3,0E0,3.2505493E0,1.1053467E-1,1.2017822E-1,5.908203E-2,1.0443452E3,1.6017285E2,8.06333E1,0E0,7.380134E1,4.4352844E1,3.2825623E0,0E0,0E0,0E0,1.205719E0,0E0,8.728027E-3,4.3533325E-2,4.812622E-1,7.61322E0,1.8051529E-1,1.0528564E-3,2.965088E-1,5.645752E-4,4.4067383E-2,1.0986328E-2,4.1077734E2,1.14675934E2,1.2579321E2,0E0,4.0962646E1,0E0,1.226673E2,4.6755478E1,1.6367737E1,4.367194E1,0E0,9.522171E-1,0E0,0E0,0E0,0E0,0E0,0E0,0E0,0E0,0E0,0E0,0E0,0E0,0E0,0E0,0E0,0E0,0E0,0E0,0E0,0E0,0E0,0E0,0E0,0E0,0E0,0E0,0E0,0E0,0E0,0E0,0E0,0E0,0E0,0E0,0E0,0E0,0E0,0E0,0E0,0E0],"parents":[2147483647,0,0,1,1,2,2,3,3,4,4,5,5,6,6,7,7,8,8,9,9,10,10,11,11,12,12,13,13,14,14,15,15,16,16,17,17,19,19,20,20,21,21,22,22,23,23,24,24,25,25,27,27,28,28,29,29,33,33,35,35,36,36,37,37,38,38,39,39,40,40,41,41,42,42,43,43,44,44,45,45,46,46,47,47,49,49,51,51,52,52,53,53,54,54,56,56],"right_children":[2,4,6,8,10,12,14,16,18,20,22,24,26,28,30,32,34,36,-1,38,40,42,44,46,48,50,-1,52,54,56,-1,-1,-1,58,-1,60,62,64,66,68,70,72,74,76,78,80,82,84,-1,86,-1,88,90,92,94,-1,96,-1,-1,-1,-1,-1,-1,-1,-1,-1,-1,-1,-1,-1,-1,-1,-1,-1,-1,-1,-1,-1,-1,-1,-1,-1,-1,-1,-1,-1,-1,-1,-1,-1,-1,-1,-1,-1,-1,-1,-1],"split_conditions":[1E0,6E0,1E0,1E0,3.8774438E0,2E0,4E0,5E0,2.7272728E-1,1.4705882E-2,4.009524E0,2E0,8E1,1E0,4E0,1.9E1,1E0,1.590909E-1,3.33913E-1,2.6086956E-1,2E0,3.1746034E-2,3.9E1,4E0,5E0,3.9E1,3.800358E-1,1E0,1E0,5E0,1.7289965E-1,3.5895532E-1,3.796833E-1,4.057313E0,3.5794777E-1,3.809524E-2,1.754386E-1,2E1,2E0,5.3333335E-2,1E0,2.7E1,3.9217212E0,1E0,4.03832E0,1.4473684E-1,5E0,5.9E1,4.787337E-1,5E0,3.2338446E-1,1E0,2E0,1E0,5E1,-1.7789401E-1,1.1111111E-1,2.2837089E-1,2.848273E-1,3.4299994E-1,3.4647536E-1,3.2898474E-1,3.4574023E-1,2.8825945E-1,3.3020255E-1,3.304864E-1,1.2797746E-1,3.4834886E-1,3.0965066E-1,3.483674E-1,3.4579942E-1,3.2457435E-1,3.4005862E-1,3.4843296E-1,3.4606138E-1,3.4312713E-1,3.327676E-1,3.4075022E-1,3.453492E-1,6.1564047E-2,-1.1906349E-1,1.16479635E-1,3.0873972E-1,-2.5057077E-1,3.8582367E-1,-2.8318423E-1,-4.896669E-2,2.9225853E-1,-9.213797E-2,-1.2938888E-1,3.0067867E-1,3.5654187E-1,2.5168487E-1,-1.286447E-1,2.7078527E-1,-3.273241E-1,-2.4125338E-1],"split_indices":[42,14,32,12,30,18,18,14,27,26,30,42,0,12,15,13,32,26,0,27,15,26,13,15,42,12,0,36,35,12,0,0,0,30,0,26,26,13,15,26,5,13,30,36,30,27,15,12,0,15,0,35,32,36,13,0,26,0,0,0,0,0,0,0,0,0,0,0,0,0,0,0,0,0,0,0,0,0,0,0,0,0,0,0,0,0,0,0,0,0,0,0,0,0,0,0,0],"split_type":[0,0,0,0,0,0,0,0,0,0,0,0,0,0,0,0,0,0,0,0,0,0,0,0,0,0,0,0,0,0,0,0,0,0,0,0,0,0,0,0,0,0,0,0,0,0,0,0,0,0,0,0,0,0,0,0,0,0,0,0,0,0,0,0,0,0,0,0,0,0,0,0,0,0,0,0,0,0,0,0,0,0,0,0,0,0,0,0,0,0,0,0,0,0,0,0,0],"sum_hessian":[3.0478506E4,6.546955E3,2.393155E4,1.0398425E3,5.507113E3,2.258687E4,1.3446814E3,3.9946173E2,6.4038086E2,7.2360504E2,4.783508E3,1.8069809E4,4.51706E3,1.2321256E3,1.12555725E2,4.530345E1,3.541583E2,6.241205E2,1.6260334E1,4.952527E2,2.2835236E2,6.740264E2,4.109481E3,1.450789E4,3.5619187E3,4.4968145E3,2.024556E1,5.300374E2,7.0208826E2,8.487528E1,2.768044E1,2.578103E1,1.9522419E1,3.3563815E2,1.8520142E1,5.1760004E2,1.065205E2,4.2204532E2,7.320737E1,4.360081E1,1.8475154E2,5.641673E2,1.0985912E2,1.4047056E3,2.7047756E3,1.335342E4,1.1544701E3,3.5342195E3,2.769912E1,4.476767E3,2.004767E1,3.6117755E2,1.6885985E2,6.00216E2,1.01872246E2,3.0608297E1,5.4266983E1,2.9716608E2,3.8472076E1,8.491856E1,4.3268146E2,1.691465E1,8.960585E1,2.6300285E1,3.9574503E2,4.7401215E1,2.5806152E1,2.2220821E1,2.1379988E1,3.1056171E1,1.5369537E2,1.5320204E2,4.1096524E2,3.1277042E1,7.858208E1,1.3661696E3,3.8535934E1,5.1852425E1,2.6529233E3,1.2501775E3,1.2103242E4,6.81423E2,4.7304715E2,3.5060408E3,2.8178713E1,4.408522E3,6.824502E1,2.5560034E2,1.0557722E2,1.4175954E2,2.7100319E1,3.9831705E2,2.0189896E2,4.172654E1,6.0145706E1,3.7524426E1,1.6742558E1],"tree_param":{"num_deleted":"0","num_feature":"44","num_nodes":"97","size_leaf_vector":"1"}},{"base_weights":[-6.90584E-2,1.3680725E0,-8.8598996E-1,1.1052257E0,1.6349862E0,-9.3118834E-1,-2.6108095E-1,8.3761126E-1,1.1098468E0,1.4517207E0,1.737234E0,2.0406039E-1,-9.481916E-1,3.1307808E-1,-8.782129E-1,-1.2545343E-3,1.1214397E0,1.1207775E0,1.1085919E0,1.4807395E0,1.2763642E0,1.8254052E0,1.3874806E0,-7.422122E-1,8.810585E-1,-9.9848336E-1,-6.7119324E-1,-5.924327E-1,1.3183632E0,-9.523283E-1,3.2410952E-1,3.3339944E-1,3.4378994E-1,1.1296778E0,3.3234018E-1,1.1158074E0,1.1082499E0,1.463739E0,1.7496291E0,4.615242E-1,1.2561276E0,1.8633025E0,1.3935963E0,1.2469835E0,1.5295842E0,-5.8794417E-3,-1.0595151E0,7.414347E-1,1.0463159E0,-1.0042043E0,-1.2748685E-1,-3.4706628E-1,-9.777078E-1,-6.9853306E-1,2.6847506E-1,1.9968103E0,-3.132013E-1,-9.886187E-1,1.351433E-2,3.407135E-1,3.3611062E-1,3.3982575E-1,3.3225375E-1,3.3286572E-1,3.323524E-1,3.8507646E-1,4.4387475E-1,5.402536E-1,4.7995687E-1,3.8935116E-1,3.651398E-1,4.3863356E-1,5.6629735E-1,3.8918415E-1,5.0048184E-1,3.8687927E-1,3.5328957E-1,4.9024454E-1,4.046729E-1,-3.6559474E-1,-1.6519827E-1,3.073673E-1,1.6059086E-1,2.8350648E-1,3.3254117E-1,-3.0237097E-1,-9.9348314E-2,4.5575235E-2,-2.7763042E-1,-2.3587842E-1,9.81938E-2,-7.6712295E-2,-3.0467826E-1,-2.3296969E-1,1.8850213E-1,3.0762523E-1,8.177828E-1,-1.673896E-1,1.6213223E-1,-1.3399427E-1,-3.0454132E-1],"categories":[],"categories_nodes":[],"categories_segments":[],"categories_sizes":[],"default_left":[0,0,0,0,0,0,0,0,0,0,0,0,0,0,0,0,0,0,0,0,0,0,0,0,0,0,0,0,0,0,0,0,0,0,0,0,0,0,0,0,0,0,0,0,0,0,0,0,0,0,0,0,0,0,0,0,0,0,0,0,0,0,0,0,0,0,0,0,0,0,0,0,0,0,0,0,0,0,0,0,0,0,0,0,0,0,0,0,0,0,0,0,0,0,0,0,0,0,0,0,0],"id":6,"left_children":[1,3,5,7,9,11,13,15,17,19,21,23,25,27,29,-1,31,33,35,37,39,41,43,45,47,49,51,53,55,57,-1,-1,-1,59,-1,61,63,65,67,-1,69,71,73,75,77,-1,79,81,83,85,87,89,91,93,-1,95,97,99,-1,-1,-1,-1,-1,-1,-1,-1,-1,-1,-1,-1,-1,-1,-1,-1,-1,-1,-1,-1,-1,-1,-1,-1,-1,-1,-1,-1,-1,-1,-1,-1,-1,-1,-1,-1,-1,-1,-1,-1,-1,-1,-1],"loss_changes":[3.1042852E4,6.7231445E2,4.7615625E2,5.970215E0,8.909473E1,3.034629E2,4.0290195E2,1.958276E1,6.542969E-2,8.663818E0,9.411426E1,1.4861737E2,2.1577246E2,5.362063E2,7.955231E1,0E0,1.4373779E-2,5.5603027E-2,8.7890625E-3,6.677002E0,1.2810669E0,3.9887207E1,1.226709E1,2.2183704E1,3.1197662E0,6.5322266E1,2.3645874E2,4.8904945E1,3.0899362E2,1.9113037E1,0E0,0E0,0E0,1.5472412E-2,0E0,2.6290894E-2,1.953125E-3,3.9211426E0,6.6519165E-1,0E0,3.6413574E-1,2.1894043E1,5.201782E0,9.1226196E-1,5.7702637E0,0E0,5.443413E0,4.2775116E0,3.891678E-1,3.24209E1,1.9072044E1,3.4262616E2,3.3460815E1,2.9950546E1,0E0,1.3964197E2,1.7129833E1,7.3223877E0,0E0,0E0,0E0,0E0,0E0,0E0,0E0,0E0,0E0,0E0,0E0,0E0,0E0,0E0,0E0,0E0,0E0,0E0,0E0,0E0,0E0,0E0,0E0,0E0,0E0,0E0,0E0,0E0,0E0,0E0,0E0,0E0,0E0,0E0,0E0,0E0,0E0,0E0,0E0,0E0,0E0,0E0,0E0],"parents":[2147483647,0,0,1,1,2,2,3,3,4,4,5,5,6,6,7,7,8,8,9,9,10,10,11,11,12,12,13,13,14,14,16,16,17,17,18,18,19,19,20,20,21,21,22,22,23,23,24,24,25,25,26,26,27,27,28,28,29,29,33,33,35,35,36,36,37,37,38,38,40,40,41,41,42,42,43,43,44,44,46,46,47,47,48,48,49,49,50,50,51,51,52,52,53,53,55,55,56,56,57,57],"right_children":[2,4,6,8,10,12,14,16,18,20,22,24,26,28,30,-1,32,34,36,38,40,42,44,46,48,50,52,54,56,58,-1,-1,-1,60,-1,62,64,66,68,-1,70,72,74,76,78,-1,80,82,84,86,88,90,92,94,-1,96,98,100,-1,-1,-1,-1,-1,-1,-1,-1,-1,-1,-1,-1,-1,-1,-1,-1,-1,-1,-1,-1,-1,-1,-1,-1,-1,-1,-1,-1,-1,-1,-1,-1,-1,-1,-1,-1,-1,-1,-1,-1,-1,-1,-1],"split_conditions":[1E0,1E0,1E0,7E0,1E0,1E0,1E0,2E0,6E0,5E0,1.1E1,2E0,2.6E1,1.9E1,8E0,-1.2545343E-3,1.3E1,1E0,2.7E1,2E0,3.7E1,5E0,1.369863E-1,1E0,4E1,3E1,2E0,2.9E1,3E0,2.5E1,3.2410952E-1,3.3339944E-1,3.4378994E-1,2.7E1,3.3234018E-1,1E0,3.7E1,1.369863E-1,6.4E1,4.615242E-1,6E0,3E0,2E0,3.2E1,5E0,-5.8794417E-3,3E1,2.4E1,6.7E1,8.3E1,4E0,1E0,3E0,8E1,2.6847506E-1,2E0,8E0,2.6E1,1.351433E-2,3.407135E-1,3.3611062E-1,3.3982575E-1,3.3225375E-1,3.3286572E-1,3.323524E-1,3.8507646E-1,4.4387475E-1,5.402536E-1,4.7995687E-1,3.8935116E-1,3.651398E-1,4.3863356E-1,5.6629735E-1,3.8918415E-1,5.0048184E-1,3.8687927E-1,3.5328957E-1,4.9024454E-1,4.046729E-1,-3.6559474E-1,-1.6519827E-1,3.073673E-1,1.6059086E-1,2.8350648E-1,3.3254117E-1,-3.0237097E-1,-9.9348314E-2,4.5575235E-2,-2.7763042E-1,-2.3587842E-1,9.81938E-2,-7.6712295E-2,-3.0467826E-1,-2.3296969E-1,1.8850213E-1,3.0762523E-1,8.177828E-1,-1.673896E-1,1.6213223E-1,-1.3399427E-1,-3.0454132E-1],"split_indices":[4,1,36,9,39,1,18,38,10,15,12,10,9,10,11,0,10,12,7,1,13,15,27,39,13,12,1,9,15,9,0,0,0,7,0,12,7,27,7,0,15,38,1,12,15,0,7,13,7,11,25,12,38,13,0,12,11,10,0,0,0,0,0,0,0,0,0,0,0,0,0,0,0,0,0,0,0,0,0,0,0,0,0,0,0,0,0,0,0,0,0,0,0,0,0,0,0,0,0,0,0],"split_type":[0,0,0,0,0,0,0,0,0,0,0,0,0,0,0,0,0,0,0,0,0,0,0,0,0,0,0,0,0,0,0,0,0,0,0,0,0,0,0,0,0,0,0,0,0,0,0,0,0,0,0,0,0,0,0,0,0,0,0,0,0,0,0,0,0,0,0,0,0,0,0,0,0,0,0,0,0,0,0,0,0,0,0,0,0,0,0,0,0,0,0,0,0,0,0,0,0,0,0,0,0],"sum_hessian":[2.6441105E4,9.582952E3,1.6858152E4,4.828258E3,4.754694E3,1.5721078E4,1.1370743E3,8.196033E1,4.746298E3,1.7027494E3,3.0519443E3,2.3198808E2,1.548909E4,5.8904553E2,5.480289E2,2.0666191E1,6.1294136E1,4.887498E2,4.257548E3,1.4609779E3,2.417714E2,2.4374685E3,6.1447595E2,9.675228E1,1.3523581E2,1.3109019E4,2.3800715E3,3.099014E2,2.791441E2,5.28047E2,1.998188E1,4.3416004E1,1.7878132E1,2.8989545E2,1.9885434E2,1.9263547E2,4.0649124E3,1.3741023E3,8.6875725E1,1.7330809E1,2.244406E2,2.2408057E3,1.9666273E2,3.0898593E2,3.0549005E2,2.9521723E1,6.723055E1,7.330421E1,6.1931602E1,1.3023476E4,8.554276E1,1.1568014E3,1.2232701E3,2.8926672E2,2.0634659E1,1.9716003E2,8.198408E1,5.095085E2,1.8538515E1,1.7586528E2,1.1403016E2,6.3293663E1,1.293418E2,9.704746E2,3.0944377E3,1.1107852E2,1.2630237E3,6.473628E1,2.2139439E1,1.0844128E2,1.1599931E2,1.2824922E2,2.1125564E3,1.4560675E2,5.1055984E1,1.9138322E2,1.176027E2,1.9350075E2,1.1198929E2,5.121376E1,1.6016796E1,3.0883642E1,4.2420567E1,2.355293E1,3.837867E1,1.2952292E4,7.11845E1,6.3357468E1,2.2185299E1,7.005576E2,4.562437E2,6.099017E1,1.16228E3,2.732003E2,1.6066462E1,8.453629E1,1.1262374E2,6.371543E1,1.8268646E1,2.3768242E1,4.8574026E2],"tree_param":{"num_deleted":"0","num_feature":"44","num_nodes":"101","size_leaf_vector":"1"}},{"base_weights":[-7.054232E-2,1.0248655E0,-3.193E-1,8.714164E-1,1.0477074E0,1.489326E-1,-4.1908985E-1,9.4850016E-1,6.1905783E-1,4.6925053E-1,1.0542694E0,1.1048918E-1,1.2099055E0,-5.051766E-1,6.057035E-2,8.2593876E-1,1.0797695E0,3.302629E-1,5.085381E-1,-1.2881766E-2,2.7560493E-1,9.491156E-1,1.0650289E0,-2.0652214E-2,2.705752E-1,3.10767E-1,1.2682285E0,-5.241382E-1,1.1123602E0,5.4321736E-1,-5.780775E-1,1.0986761E0,7.378366E-1,1.0857418E0,1.0718064E0,7.8603095E-1,3.597768E-1,1.0708762E0,7.3980534E-1,1.0273362E0,1.0696077E0,-6.066502E-2,6.914825E-1,2.2648023E-1,7.9068774E-1,1.3278315E0,3.3944345E-1,-7.5718766E-1,-4.326501E-1,1.3780233E0,9.8595655E-1,3.439833E-1,9.123028E-1,-6.637159E-1,9.3062305E-1,3.2441318E-1,3.345757E-1,2.7935493E-1,1.088533E-1,3.2415977E-1,3.2629856E-1,3.1273437E-1,3.2467073E-1,2.3771791E-1,2.3382503E-1,7.641883E-2,1.660828E-1,3.2381317E-1,3.1606233E-1,1.0180134E-1,2.6736432E-1,3.1685567E-1,2.5879657E-1,3.1424344E-1,3.2156277E-1,6.0157962E-2,-6.6565275E-2,2.1677177E-2,2.5547603E-1,8.9390695E-2,-4.7535706E-2,4.355681E-2,2.9157045E-1,3.5816687E-1,4.2783162E-1,-2.3368555E-1,1.508987E-1,-9.994699E-2,-2.5835347E-1,3.5295752E-1,4.9041352E-1,2.3934358E-1,3.3637977E-1,7.937628E-2,3.7115255E-1,-1.4123332E-2,3.4142298E-1,-2.3021272E-1,-6.887606E-2,1.1284155E-1,3.7277263E-1],"categories":[],"categories_nodes":[],"categories_segments":[],"categories_sizes":[],"default_left":[0,0,0,0,0,0,0,0,0,0,0,0,0,0,0,0,0,0,0,0,0,0,0,0,0,0,0,0,0,0,0,0,0,0,0,0,0,0,0,0,0,0,0,0,0,0,0,0,0,0,0,0,0,0,0,0,0,0,0,0,0,0,0,0,0,0,0,0,0,0,0,0,0,0,0,0,0,0,0,0,0,0,0,0,0,0,0,0,0,0,0,0,0,0,0,0,0,0,0,0,0],"id":7,"left_children":[1,3,5,7,9,11,13,15,17,19,21,23,25,27,29,31,33,-1,35,-1,-1,37,39,41,43,-1,45,47,49,51,53,55,57,59,61,63,65,67,69,71,73,75,77,79,81,83,-1,85,87,89,91,93,95,97,99,-1,-1,-1,-1,-1,-1,-1,-1,-1,-1,-1,-1,-1,-1,-1,-1,-1,-1,-1,-1,-1,-1,-1,-1,-1,-1,-1,-1,-1,-1,-1,-1,-1,-1,-1,-1,-1,-1,-1,-1,-1,-1,-1,-1,-1,-1],"loss_changes":[5.724709E3,1.3626953E1,7.999674E2,9.799072E0,1.2845703E1,1.2267884E2,5.8276074E2,6.207733E0,6.2762337E0,8.738756E0,3.784912E0,6.0936996E1,1.0665741E0,3.6699683E2,6.6195013E2,4.7946777E0,8.087158E-3,0E0,3.957573E0,0E0,0E0,7.9155273E0,5.2368164E-1,4.5463936E1,2.9976181E1,0E0,6.4112854E-1,2.5216357E2,4.6548157E0,8.994235E1,1.1943042E2,1.3179779E-2,1.0936073E1,2.822876E-4,2.368927E-2,8.392334E-4,1.2706728E0,2.8167725E-2,6.926281E0,1.5615234E0,1.3476562E-1,6.361262E1,8.4146385E0,3.3157127E1,1.1948521E1,7.2115326E-1,0E0,9.144214E1,3.620985E2,2.3108215E0,2.3908844E0,5.6331085E1,9.28779E1,3.9363342E1,8.587715E0,0E0,0E0,0E0,0E0,0E0,0E0,0E0,0E0,0E0,0E0,0E0,0E0,0E0,0E0,0E0,0E0,0E0,0E0,0E0,0E0,0E0,0E0,0E0,0E0,0E0,0E0,0E0,0E0,0E0,0E0,0E0,0E0,0E0,0E0,0E0,0E0,0E0,0E0,0E0,0E0,0E0,0E0,0E0,0E0,0E0,0E0],"parents":[2147483647,0,0,1,1,2,2,3,3,4,4,5,5,6,6,7,7,8,8,9,9,10,10,11,11,12,12,13,13,14,14,15,15,16,16,18,18,21,21,22,22,23,23,24,24,26,26,27,27,28,28,29,29,30,30,31,31,32,32,33,33,34,34,35,35,36,36,37,37,38,38,39,39,40,40,41,41,42,42,43,43,44,44,45,45,47,47,48,48,49,49,50,50,51,51,52,52,53,53,54,54],"right_children":[2,4,6,8,10,12,14,16,18,20,22,24,26,28,30,32,34,-1,36,-1,-1,38,40,42,44,-1,46,48,50,52,54,56,58,60,62,64,66,68,70,72,74,76,78,80,82,84,-1,86,88,90,92,94,96,98,100,-1,-1,-1,-1,-1,-1,-1,-1,-1,-1,-1,-1,-1,-1,-1,-1,-1,-1,-1,-1,-1,-1,-1,-1,-1,-1,-1,-1,-1,-1,-1,-1,-1,-1,-1,-1,-1,-1,-1,-1,-1,-1,-1,-1,-1,-1],"split_conditions":[1E0,2.7E1,1E0,1.4E1,7E0,1E0,2.7E1,2.3E1,2.3E1,1.2E1,6E0,2E1,1.9E1,1E0,2E0,5E0,1.2E1,3.302629E-1,1E0,-1.2881766E-2,2.7560493E-1,1.8E1,3.3E1,5E0,3.4E1,3.10767E-1,5E0,1.6E1,6.9E1,3.2E1,4.7E1,1.1E1,1E0,1.7E1,2.5E1,2.5E1,1.7E1,2.4E1,3.1E1,1.8E1,1.1E1,3.9E1,6E1,2E0,4.9E1,2E0,3.3944345E-1,5E0,2E0,4.3E1,1.19E2,4E0,7E0,3E0,7.6E1,3.2441318E-1,3.345757E-1,2.7935493E-1,1.088533E-1,3.2415977E-1,3.2629856E-1,3.1273437E-1,3.2467073E-1,2.3771791E-1,2.3382503E-1,7.641883E-2,1.660828E-1,3.2381317E-1,3.1606233E-1,1.0180134E-1,2.6736432E-1,3.1685567E-1,2.5879657E-1,3.1424344E-1,3.2156277E-1,6.0157962E-2,-6.6565275E-2,2.1677177E-2,2.5547603E-1,8.9390695E-2,-4.7535706E-2,4.355681E-2,2.9157045E-1,3.5816687E-1,4.2783162E-1,-2.3368555E-1,1.508987E-1,-9.994699E-2,-2.5835347E-1,3.5295752E-1,4.9041352E-1,2.3934358E-1,3.3637977E-1,7.937628E-2,3.7115255E-1,-1.4123332E-2,3.4142298E-1,-2.3021272E-1,-6.887606E-2,1.1284155E-1,3.7277263E-1],"split_indices":[1,7,39,9,9,33,9,7,7,14,14,9,9,33,1,14,9,0,39,0,0,9,7,16,9,0,16,9,7,9,9,13,39,13,7,7,9,13,7,9,9,7,7,1,7,1,0,16,1,13,7,16,14,1,7,0,0,0,0,0,0,0,0,0,0,0,0,0,0,0,0,0,0,0,0,0,0,0,0,0,0,0,0,0,0,0,0,0,0,0,0,0,0,0,0,0,0,0,0,0,0],"split_type":[0,0,0,0,0,0,0,0,0,0,0,0,0,0,0,0,0,0,0,0,0,0,0,0,0,0,0,0,0,0,0,0,0,0,0,0,0,0,0,0,0,0,0,0,0,0,0,0,0,0,0,0,0,0,0,0,0,0,0,0,0,0,0,0,0,0,0,0,0,0,0,0,0,0,0,0,0,0,0,0,0,0,0,0,0,0,0,0,0,0,0,0,0,0,0,0,0,0,0,0,0],"sum_hessian":[2.1008793E4,3.887987E3,1.7120807E4,5.0376566E2,3.3842214E3,3.007773E3,1.4113033E4,3.8589215E2,1.1787351E2,3.7961063E1,3.3462603E3,2.9026E3,1.0517283E2,1.1965528E4,2.147505E3,1.9956668E2,1.8632547E2,2.199247E1,9.588104E1,1.7741453E1,2.021961E1,3.1061252E2,3.035648E3,1.5955411E3,1.3070588E3,2.6402674E1,7.877016E1,1.1826887E4,1.3864102E2,1.2231393E3,9.2436566E2,4.8724968E1,1.508417E2,1.0644526E2,7.988022E1,3.3461323E1,6.241972E1,1.9637492E2,1.14237595E2,3.2883133E2,2.7068164E3,1.5106619E3,8.487925E1,1.2049078E3,1.02151E2,5.4857647E1,2.3912504E1,3.3340352E3,8.492852E3,4.4697407E1,9.394362E1,7.943476E2,4.287917E2,8.747145E2,4.9651188E1,2.385356E1,2.4871407E1,9.952537E1,5.131634E1,2.8719503E1,7.772575E1,2.0947561E1,5.893265E1,1.7027872E1,1.6433453E1,4.0482258E1,2.1937462E1,1.3174648E2,6.462845E1,3.1342089E1,8.289551E1,2.7981097E2,4.9020363E1,2.5165054E2,2.455166E3,5.7656525E2,9.340967E2,1.743792E1,6.744133E1,1.0161853E3,1.8872255E2,2.2391747E1,7.9759254E1,2.3217344E1,3.1640303E1,3.2774321E3,5.6603058E1,6.892571E3,1.6002811E3,2.5041471E1,1.9655935E1,3.930022E1,5.4643402E1,7.295026E2,6.4844986E1,8.1685196E1,3.471065E2,7.0611096E2,1.6860352E2,1.7876854E1,3.1774332E1],"tree_param":{"num_deleted":"0","num_feature":"44","num_nodes":"101","size_leaf_vector":"1"}},{"base_weights":[-5.4555677E-2,9.838494E-1,-2.5234658E-1,8.4993136E-1,1.0326589E0,-1.5588334E-1,-7.2642356E-1,7.637779E-1,1.0363448E0,8.036052E-1,1.03665E0,-2.1260507E-1,5.327641E-1,-7.5621533E-1,1.0629365E0,5.2417916E-1,8.8223785E-1,1.0068805E0,1.059729E0,1.7904894E-1,3.0552873E-1,9.721533E-1,1.0432379E0,-1.0312147E-1,-7.036663E-1,6.5603167E-1,-1.0604153E-1,-8.089452E-1,-1.5678827E-1,4.7578475E-1,2.2238952E-1,3.507709E-1,4.414754E-1,8.899905E-2,9.1567457E-1,1.0384986E0,9.5917886E-1,1.0629535E0,3.1718832E-1,6.9108164E-1,3.1742683E-1,1.0244657E0,1.0523115E0,-1.4471212E-1,4.485881E-1,-7.193131E-1,2.6163483E-1,-5.2052762E-2,7.4013513E-1,-4.7339562E-1,8.4822506E-1,-6.7892575E-1,-9.131545E-1,2.9096127E-1,-2.7724293E-1,1.4834563E-1,4.3870542E-2,2.2282158E-1,2.843544E-1,3.213663E-1,3.08092E-1,2.5916317E-1,3.179719E-1,3.1790915E-1,3.2157287E-1,2.2224112E-1,1.869326E-1,3.0831337E-1,2.748777E-1,3.1250405E-1,3.164824E-1,-2.5333693E-2,-1.6073924E-1,-1.1122709E-1,2.2632279E-1,-2.219061E-1,1.6931726E-2,8.801158E-2,-2.7312538E-1,4.2427176E-1,1.7356499E-1,-2.6568073E-1,-5.992953E-2,3.6445907E-1,1.5943903E-1,-2.4954928E-1,-1.3203338E-1,-2.7853468E-1,-3.5243924E-3,-1.7401621E-1,9.140149E-2],"categories":[],"categories_nodes":[],"categories_segments":[],"categories_sizes":[],"default_left":[0,0,0,0,0,0,0,0,0,0,0,0,0,0,0,0,0,0,0,0,0,0,0,0,0,0,0,0,0,0,0,0,0,0,0,0,0,0,0,0,0,0,0,0,0,0,0,0,0,0,0,0,0,0,0,0,0,0,0,0,0,0,0,0,0,0,0,0,0,0,0,0,0,0,0,0,0,0,0,0,0,0,0,0,0,0,0,0,0,0,0],"id":8,"left_children":[1,3,5,7,9,11,13,15,17,19,21,23,25,27,29,31,33,35,37,-1,-1,39,41,43,45,47,49,51,53,-1,-1,-1,55,-1,57,59,61,63,-1,65,-1,67,69,71,73,75,-1,77,79,81,83,85,87,-1,89,-1,-1,-1,-1,-1,-1,-1,-1,-1,-1,-1,-1,-1,-1,-1,-1,-1,-1,-1,-1,-1,-1,-1,-1,-1,-1,-1,-1,-1,-1,-1,-1,-1,-1,-1,-1],"loss_changes":[3.8324917E3,1.951416E1,7.1680035E2,1.2807251E1,1.9995117E0,5.0874066E2,1.412721E2,1.5480164E1,1.7294312E-1,1.6639977E0,9.133301E-1,6.469346E2,7.804529E1,8.239172E1,7.299923E0,9.62611E0,7.14563E0,1.6750336E-1,3.3569336E-4,0E0,0E0,4.8137207E0,3.3129883E-1,2.2577306E2,5.408777E1,4.9476807E1,5.6199505E1,3.2462524E1,2.8602879E1,0E0,0E0,0E0,2.502987E0,0E0,1.9204102E0,2.4543762E-2,4.2616272E-1,9.841919E-4,0E0,1.5724373E-1,0E0,2.2259521E-1,3.6010742E-2,2.1564977E2,1.7283098E2,3.4331177E1,0E0,2.6152487E1,8.08876E1,1.3055979E1,5.1745453E0,3.8924255E1,1.833545E1,0E0,3.3551876E1,0E0,0E0,0E0,0E0,0E0,0E0,0E0,0E0,0E0,0E0,0E0,0E0,0E0,0E0,0E0,0E0,0E0,0E0,0E0,0E0,0E0,0E0,0E0,0E0,0E0,0E0,0E0,0E0,0E0,0E0,0E0,0E0,0E0,0E0,0E0,0E0],"parents":[2147483647,0,0,1,1,2,2,3,3,4,4,5,5,6,6,7,7,8,8,9,9,10,10,11,11,12,12,13,13,14,14,15,15,16,16,17,17,18,18,21,21,22,22,23,23,24,24,25,25,26,26,27,27,28,28,32,32,34,34,35,35,36,36,37,37,39,39,41,41,42,42,43,43,44,44,45,45,47,47,48,48,49,49,50,50,51,51,52,52,54,54],"right_children":[2,4,6,8,10,12,14,16,18,20,22,24,26,28,30,32,34,36,38,-1,-1,40,42,44,46,48,50,52,54,-1,-1,-1,56,-1,58,60,62,64,-1,66,-1,68,70,72,74,76,-1,78,80,82,84,86,88,-1,90,-1,-1,-1,-1,-1,-1,-1,-1,-1,-1,-1,-1,-1,-1,-1,-1,-1,-1,-1,-1,-1,-1,-1,-1,-1,-1,-1,-1,-1,-1,-1,-1,-1,-1,-1,-1],"split_conditions":[1E0,3.955292E0,2E0,1E0,2.6E1,4.685952E0,1E0,6E0,3E0,2E0,6E0,1E0,1E0,4.714987E0,1.2E1,5E0,2.3E1,6E0,1E0,1.7904894E-1,3.0552873E-1,1E0,4.8E1,1E0,1E0,6.9E1,3.6E1,4E0,8E0,4.7578475E-1,2.2238952E-1,3.507709E-1,2.9E1,8.899905E-2,2.8E1,3.6800892E0,2E0,2.7E1,3.1718832E-1,4.0815325E0,3.1742683E-1,1E0,4.1909294E0,5E0,8E0,1.3E1,2.6163483E-1,1E0,3E0,3E0,5E1,1.2E1,5E0,2.9096127E-1,1.19E2,1.4834563E-1,4.3870542E-2,2.2282158E-1,2.843544E-1,3.213663E-1,3.08092E-1,2.5916317E-1,3.179719E-1,3.1790915E-1,3.2157287E-1,2.2224112E-1,1.869326E-1,3.0831337E-1,2.748777E-1,3.1250405E-1,3.164824E-1,-2.5333693E-2,-1.6073924E-1,-1.1122709E-1,2.2632279E-1,-2.219061E-1,1.6931726E-2,8.801158E-2,-2.7312538E-1,4.2427176E-1,1.7356499E-1,-2.6568073E-1,-5.992953E-2,3.6445907E-1,1.5943903E-1,-2.4954928E-1,-1.3203338E-1,-2.7853468E-1,-3.5243924E-3,-1.7401621E-1,9.140149E-2],"split_indices":[1,30,18,12,7,30,33,14,12,12,14,19,25,30,14,14,7,14,5,0,0,12,7,36,33,7,14,18,12,0,0,0,7,0,7,30,15,7,0,30,0,36,30,11,14,12,0,18,15,15,12,14,15,0,7,0,0,0,0,0,0,0,0,0,0,0,0,0,0,0,0,0,0,0,0,0,0,0,0,0,0,0,0,0,0,0,0,0,0,0,0],"split_type":[0,0,0,0,0,0,0,0,0,0,0,0,0,0,0,0,0,0,0,0,0,0,0,0,0,0,0,0,0,0,0,0,0,0,0,0,0,0,0,0,0,0,0,0,0,0,0,0,0,0,0,0,0,0,0,0,0,0,0,0,0,0,0,0,0,0,0,0,0,0,0,0,0,0,0,0,0,0,0,0,0,0,0,0,0,0,0,0,0,0,0],"sum_hessian":[1.8659848E4,2.9855686E3,1.567428E4,7.974963E2,2.1880723E3,1.3024175E4,2.6501047E3,5.454235E2,2.5207277E2,3.747352E1,2.1505989E3,1.2033051E4,9.911241E2,2.606705E3,4.3399857E1,1.8044865E2,3.6497488E2,1.1154284E2,1.4052992E2,1.9095303E1,1.8378214E1,1.9931696E2,1.9512819E3,9.839341E3,2.1937102E3,8.308073E2,1.6031676E2,2.3959404E3,2.1076448E2,1.652599E1,2.6873869E1,2.050594E1,1.5994272E2,1.9715206E1,3.4525967E2,6.70755E1,4.4467342E1,6.0392555E1,8.0137375E1,4.6671707E1,1.5264525E2,6.3583813E2,1.3154437E3,9.149599E3,6.8974225E2,2.172142E3,2.156807E1,8.820311E1,7.426042E2,1.1575583E2,4.456094E1,1.0659648E3,1.3299757E3,2.0356762E1,1.9040771E2,1.3559547E2,2.4347239E1,5.415893E1,2.9110074E2,1.7463192E1,4.9612305E1,2.2850908E1,2.1616432E1,4.4319195E1,1.607336E1,2.6951443E1,1.9720263E1,6.173187E2,1.8519365E1,2.6089154E2,1.0545522E3,7.927905E3,1.2216938E3,1.8747223E2,5.0227005E2,2.1165547E3,5.5587414E1,6.2893135E1,2.5309978E1,1.4358627E2,5.990179E2,4.618291E1,6.9572914E1,2.0653835E1,2.3907103E1,6.498716E2,4.1609326E2,1.3077856E3,2.2190008E1,1.2523813E2,6.5169586E1],"tree_param":{"num_deleted":"0","num_feature":"44","num_nodes":"91","size_leaf_vector":"1"}},{"base_weights":[-4.2049646E-2,1.3003737E0,-7.929532E-1,1.0322748E0,1.4456877E0,-8.487602E-1,-1.6777922E-1,8.6270237E-1,1.0437642E0,1.307525E0,1.5163962E0,-4.829247E-1,-8.9389443E-1,3.7882695E-1,-5.508053E-1,-1.4408533E-1,1.0423497E0,1.0551978E0,1.0422487E0,1.3253912E0,1.1803936E0,1.2185394E0,1.5591767E0,-8.560734E-1,-1.671229E-1,-8.974184E-1,2.4386083E-1,-8.78928E-1,1.4895428E0,-7.67663E-1,3.9012685E-1,3.123745E-1,3.147309E-1,1.065146E0,3.127512E-1,1.0480288E0,1.0416191E0,1.3148173E0,1.4837648E0,1.1480006E0,1.2828928E0,1.3194318E0,1.1750058E0,1.588966E0,1.2770408E0,-8.733437E-1,-1.04167216E-1,1.4199667E0,-3.6417186E-1,-9.096719E-1,-6.073612E-1,-9.918527E-1,-8.5504845E-2,1.6792473E0,1.5285653E-1,-9.1257554E-1,-2.0649797E-1,-1.833637E-1,5.358997E-1,3.1583816E-1,3.209256E-1,3.1859833E-1,3.1247357E-1,3.131868E-1,3.1239095E-1,3.633971E-1,3.9815736E-1,4.2004758E-1,4.5240602E-1,3.509822E-1,3.3695108E-1,4.1996512E-1,3.527483E-1,3.9065003E-1,4.0801588E-1,3.679626E-1,3.4122613E-1,4.112836E-1,4.805134E-1,3.6183953E-1,4.397506E-1,-2.038994E-1,-2.7816322E-1,-1.4728196E-1,1.6690071E-1,-1.4460789E-1,-2.7492404E-1,-2.6781338E-1,-8.8709995E-2,-3.188967E-1,-2.8817612E-1,6.371467E-1,2.8789666E-1,-1.8289398E-1,-3.0206054E-1,3.6002487E-1,-2.0109265E-1,-3.5099652E-1,4.4877037E-2],"categories":[],"categories_nodes":[],"categories_segments":[],"categories_sizes":[],"default_left":[0,0,0,0,0,0,0,0,0,0,0,0,0,0,0,0,0,0,0,0,0,0,0,0,0,0,0,0,0,0,0,0,0,0,0,0,0,0,0,0,0,0,0,0,0,0,0,0,0,0,0,0,0,0,0,0,0,0,0,0,0,0,0,0,0,0,0,0,0,0,0,0,0,0,0,0,0,0,0,0,0,0,0,0,0,0,0,0,0,0,0,0,0,0,0,0,0,0,0],"id":9,"left_children":[1,3,5,7,9,11,13,15,17,19,21,23,25,27,29,-1,31,33,35,37,39,41,43,45,47,49,-1,51,53,55,57,-1,-1,59,-1,61,63,65,67,69,71,73,75,77,79,81,-1,-1,83,85,87,89,-1,91,-1,93,95,97,-1,-1,-1,-1,-1,-1,-1,-1,-1,-1,-1,-1,-1,-1,-1,-1,-1,-1,-1,-1,-1,-1,-1,-1,-1,-1,-1,-1,-1,-1,-1,-1,-1,-1,-1,-1,-1,-1,-1,-1,-1],"loss_changes":[1.7092367E4,2.3696094E2,3.7937695E2,4.164551E0,3.8533203E1,1.6483105E2,1.8656839E2,3.273176E1,3.4179688E-2,3.0319824E0,3.3246582E1,1.2919307E2,5.3446777E1,5.1292163E2,1.0691353E2,0E0,1.2207031E-4,2.8839111E-2,5.6152344E-3,1.9597168E0,5.453949E-1,1.4382935E0,1.9174316E1,4.4158936E0,5.7337384E2,3.1518066E1,0E0,1.1547302E1,3.6247864E1,3.4627335E1,7.858171E1,0E0,0E0,6.6986084E-3,0E0,1.4877319E-2,6.1035156E-4,1.404541E0,1.4753723E-1,6.7276E-2,4.9394226E-1,6.83136E-2,4.425354E-1,5.732422E0,2.915924E0,5.0702515E0,0E0,0E0,6.6612175E1,2.4529297E1,3.1966293E1,3.210144E-1,0E0,5.2257996E1,0E0,9.66626E0,5.7014828E1,2.2852547E1,0E0,0E0,0E0,0E0,0E0,0E0,0E0,0E0,0E0,0E0,0E0,0E0,0E0,0E0,0E0,0E0,0E0,0E0,0E0,0E0,0E0,0E0,0E0,0E0,0E0,0E0,0E0,0E0,0E0,0E0,0E0,0E0,0E0,0E0,0E0,0E0,0E0,0E0,0E0,0E0,0E0],"parents":[2147483647,0,0,1,1,2,2,3,3,4,4,5,5,6,6,7,7,8,8,9,9,10,10,11,11,12,12,13,13,14,14,16,16,17,17,18,18,19,19,20,20,21,21,22,22,23,23,24,24,25,25,27,27,28,28,29,29,30,30,33,33,35,35,36,36,37,37,38,38,39,39,40,40,41,41,42,42,43,43,44,44,45,45,48,48,49,49,50,50,51,51,53,53,55,55,56,56,57,57],"right_children":[2,4,6,8,10,12,14,16,18,20,22,24,26,28,30,-1,32,34,36,38,40,42,44,46,48,50,-1,52,54,56,58,-1,-1,60,-1,62,64,66,68,70,72,74,76,78,80,82,-1,-1,84,86,88,90,-1,92,-1,94,96,98,-1,-1,-1,-1,-1,-1,-1,-1,-1,-1,-1,-1,-1,-1,-1,-1,-1,-1,-1,-1,-1,-1,-1,-1,-1,-1,-1,-1,-1,-1,-1,-1,-1,-1,-1,-1,-1,-1,-1,-1,-1],"split_conditions":[1E0,1E0,1E0,2E0,1E0,1.4736842E-1,9E0,1.7073171E-1,2.7E1,5E0,1.3829787E-1,2.173913E-2,1.1E1,4E0,6E0,-1.4408533E-1,1.1E1,1E0,6E0,2E0,2E0,8E0,5E0,7E0,4.8E1,1.4E1,2.4386083E-1,1.923077E-2,1.1E1,8E0,9E0,3.123745E-1,3.147309E-1,3E0,3.127512E-1,1E0,3.4E1,1.4634146E-1,1.75E-1,6E0,6E0,1.3432837E-1,9.7E1,3E0,2E0,7E0,-1.04167216E-1,1.4199667E0,6.5E1,1E0,1E0,3.6E1,-8.5504845E-2,1.7460318E-1,1.5285653E-1,5E0,6.153846E-2,6.6E1,5.358997E-1,3.1583816E-1,3.209256E-1,3.1859833E-1,3.1247357E-1,3.131868E-1,3.1239095E-1,3.633971E-1,3.9815736E-1,4.2004758E-1,4.5240602E-1,3.509822E-1,3.3695108E-1,4.1996512E-1,3.527483E-1,3.9065003E-1,4.0801588E-1,3.679626E-1,3.4122613E-1,4.112836E-1,4.805134E-1,3.6183953E-1,4.397506E-1,-2.038994E-1,-2.7816322E-1,-1.4728196E-1,1.6690071E-1,-1.4460789E-1,-2.7492404E-1,-2.6781338E-1,-8.8709995E-2,-3.188967E-1,-2.8817612E-1,6.371467E-1,2.8789666E-1,-1.8289398E-1,-3.0206054E-1,3.6002487E-1,-2.0109265E-1,-3.5099652E-1,4.4877037E-2],"split_indices":[4,1,36,38,39,27,14,26,8,15,27,26,21,21,21,0,14,12,14,1,1,12,15,21,8,12,0,26,12,11,11,0,0,38,0,12,8,27,27,15,15,27,8,38,1,14,0,0,11,1,23,8,0,27,0,12,26,8,0,0,0,0,0,0,0,0,0,0,0,0,0,0,0,0,0,0,0,0,0,0,0,0,0,0,0,0,0,0,0,0,0,0,0,0,0,0,0,0,0],"split_type":[0,0,0,0,0,0,0,0,0,0,0,0,0,0,0,0,0,0,0,0,0,0,0,0,0,0,0,0,0,0,0,0,0,0,0,0,0,0,0,0,0,0,0,0,0,0,0,0,0,0,0,0,0,0,0,0,0,0,0,0,0,0,0,0,0,0,0,0,0,0,0,0,0,0,0,0,0,0,0,0,0,0,0,0,0,0,0,0,0,0,0,0,0,0,0,0,0,0,0],"sum_hessian":[1.6956205E4,6.0824106E3,1.0873794E4,2.1379595E3,3.944451E3,9.982676E3,8.911178E2,1.3566693E2,2.0022925E3,1.3353037E3,2.6091475E3,1.0963367E3,8.886339E3,3.6715698E2,5.239608E2,1.6006363E1,1.1966057E2,2.3431206E2,1.7679805E3,1.1707694E3,1.6453421E2,3.2768314E2,2.281464E3,5.0253937E2,5.9379736E2,8.868029E3,1.83094E1,1.7218146E2,1.9497554E2,4.2582156E2,9.813923E1,1.0292842E2,1.6732147E1,1.3134682E2,1.0296523E2,1.7361185E2,1.5943687E3,1.0974977E3,7.327182E1,1.2502568E2,3.9508533E1,9.876928E1,2.2891386E2,2.0635798E3,2.1788428E2,4.8604242E2,1.6496946E1,2.2954237E1,5.7084314E2,8.508581E3,3.594491E2,1.4467311E2,2.750834E1,1.6335439E2,3.1621153E1,3.3842715E2,8.739442E1,6.956513E1,2.8574097E1,3.5696808E1,9.565001E1,5.4833755E1,1.1877809E2,1.8970596E2,1.4046626E3,1.1720705E2,9.802906E2,1.6480255E1,5.679157E1,6.636836E1,5.8657314E1,1.8877537E1,2.0630997E1,6.931664E1,2.9452642E1,9.653606E1,1.323778E2,1.1397395E2,1.949606E3,1.583949E2,5.9489372E1,1.057662E2,3.802762E2,5.0174548E2,6.909766E1,1.3205046E2,8.37653E3,1.8764468E2,1.7180441E2,4.4168518E1,1.005046E2,1.0097189E2,6.2382496E1,8.033707E1,2.580901E2,2.1671457E1,6.572296E1,1.7552832E1,5.2012302E1],"tree_param":{"num_deleted":"0","num_feature":"44","num_nodes":"99","size_leaf_vector":"1"}},{"base_weights":[-4.2695746E-2,1.2015175E0,-7.266477E-1,1.017327E0,1.2937495E0,-7.827114E-1,-1.5541711E-1,8.120821E-1,1.0320054E0,1.2120831E0,1.3337746E0,-8.1936526E-1,-1.7753857E-1,3.2323205E-1,-5.259612E-1,-1.2503468E-1,3.0938876E-1,1.0420119E0,1.0308232E0,1.2216399E0,1.1105056E0,1.1706848E0,1.3599032E0,-6.727651E-1,-8.825904E-1,-4.5008087E-1,5.621077E-1,-5.9143364E-1,1.2837762E0,-7.456585E-1,4.231956E-1,1.0459063E0,3.0949256E-1,3.09877E-1,3.0907038E-1,1.2167232E0,4.111067E-1,1.0905528E0,1.1440209E0,1.2403711E0,1.1327493E0,1.376034E0,1.1960016E0,-1.0282869E-1,-7.7080417E-1,5.014224E-1,-8.9347446E-1,4.5964128E-1,-5.5843323E-1,1.1527092E0,-1.5841934E-1,-7.4087465E-1,1.4524175E-1,1.4394408E0,-5.313928E-2,2.0773812E-1,-8.18898E-1,-1.03583425E-1,4.1026947E-1,3.147756E-1,3.1204635E-1,3.6673352E-1,3.3181584E-1,3.3130026E-1,3.220076E-1,3.5193655E-1,3.3399788E-1,3.6630172E-1,3.891698E-1,3.351512E-1,3.6260045E-1,4.0991995E-1,4.4699052E-1,3.4394866E-1,3.9619422E-1,-1.843352E-1,3.3218867E-1,-2.4955209E-1,-9.9523686E-2,1.978218E-2,2.612331E-1,-1.4048958E-1,-2.7141142E-1,-6.527008E-2,3.1725767E-1,1.7504483E-1,-1.9524254E-1,6.141002E-1,2.0115755E-1,-2.4548905E-1,2.3268007E-1,-2.6448414E-1,-9.054086E-2,3.4828782E-1,6.7269504E-1,-7.851286E-2,-2.7586251E-1,1.0986863E-1,-2.1503468E-1],"categories":[],"categories_nodes":[],"categories_segments":[],"categories_sizes":[],"default_left":[0,0,0,0,0,0,0,0,0,0,0,0,0,0,0,0,0,0,0,0,0,0,0,0,0,0,0,0,0,0,0,0,0,0,0,0,0,0,0,0,0,0,0,0,0,0,0,0,0,0,0,0,0,0,0,0,0,0,0,0,0,0,0,0,0,0,0,0,0,0,0,0,0,0,0,0,0,0,0,0,0,0,0,0,0,0,0,0,0,0,0,0,0,0,0,0,0,0,0],"id":10,"left_children":[1,3,5,7,9,11,13,15,17,19,21,23,25,27,29,-1,-1,31,33,35,37,39,41,43,45,47,49,51,53,55,57,59,-1,-1,-1,61,-1,63,65,67,69,71,73,75,77,79,81,83,85,87,89,91,-1,93,-1,-1,95,97,-1,-1,-1,-1,-1,-1,-1,-1,-1,-1,-1,-1,-1,-1,-1,-1,-1,-1,-1,-1,-1,-1,-1,-1,-1,-1,-1,-1,-1,-1,-1,-1,-1,-1,-1,-1,-1,-1,-1,-1,-1],"loss_changes":[1.1537488E4,8.169873E1,2.8017773E2,4.833618E0,1.0473633E1,1.7671826E2,1.3867874E2,2.8851868E1,1.6967773E-2,1.0222168E0,9.163086E0,6.962451E1,9.171527E1,2.9975427E2,9.1902405E1,0E0,0E0,5.6610107E-3,1.0986328E-3,7.036133E-1,5.9791565E-2,7.841797E-1,4.899658E0,1.2647363E2,7.905835E1,3.2771393E1,5.2131836E1,2.809074E1,3.7845642E1,3.7694916E1,4.12099E1,1.4572144E-3,0E0,0E0,0E0,5.8947754E-1,0E0,1.2672424E-2,2.9376984E-2,1.1433411E-1,2.2659302E-1,1.8515625E0,1.0239563E0,2.0568085E2,5.1754395E1,6.5865107E0,2.4864258E1,1.432683E1,3.1337654E1,2.9029465E1,3.401118E1,9.481628E0,0E0,3.362445E1,0E0,0E0,1.9096237E1,1.5319302E1,0E0,0E0,0E0,0E0,0E0,0E0,0E0,0E0,0E0,0E0,0E0,0E0,0E0,0E0,0E0,0E0,0E0,0E0,0E0,0E0,0E0,0E0,0E0,0E0,0E0,0E0,0E0,0E0,0E0,0E0,0E0,0E0,0E0,0E0,0E0,0E0,0E0,0E0,0E0,0E0,0E0],"parents":[2147483647,0,0,1,1,2,2,3,3,4,4,5,5,6,6,7,7,8,8,9,9,10,10,11,11,12,12,13,13,14,14,17,17,18,18,19,19,20,20,21,21,22,22,23,23,24,24,25,25,26,26,27,27,28,28,29,29,30,30,31,31,35,35,37,37,38,38,39,39,40,40,41,41,42,42,43,43,44,44,45,45,46,46,47,47,48,48,49,49,50,50,51,51,53,53,56,56,57,57],"right_children":[2,4,6,8,10,12,14,16,18,20,22,24,26,28,30,-1,-1,32,34,36,38,40,42,44,46,48,50,52,54,56,58,60,-1,-1,-1,62,-1,64,66,68,70,72,74,76,78,80,82,84,86,88,90,92,-1,94,-1,-1,96,98,-1,-1,-1,-1,-1,-1,-1,-1,-1,-1,-1,-1,-1,-1,-1,-1,-1,-1,-1,-1,-1,-1,-1,-1,-1,-1,-1,-1,-1,-1,-1,-1,-1,-1,-1,-1,-1,-1,-1,-1,-1],"split_conditions":[1E0,1E0,1E0,2E0,1E0,4.714987E0,4.3129086E0,1.590909E-1,6E0,4.694779E0,1.4285715E-1,1.2E1,6E0,5E0,6E0,-1.2503468E-1,3.0938876E-1,1E0,3.988309E0,4E0,1.627907E-1,8E0,5E0,1.641791E-1,1E0,3E0,1.5476191E-1,1E0,3.4E1,1.2820514E-1,4.753649E0,2.7E1,3.0949256E-1,3.09877E-1,3.0907038E-1,6E0,4.111067E-1,1.16E2,9.9E1,1.3829787E-1,1.3432837E-1,2E0,2E0,2.1276595E-2,1E0,4E1,1.2643678E-1,2E0,1.0504202E-1,1.8E1,9E1,4E0,1.4524175E-1,4.167219E0,-5.313928E-2,2.0773812E-1,4.4251413E0,8.9E1,4.1026947E-1,3.147756E-1,3.1204635E-1,3.6673352E-1,3.3181584E-1,3.3130026E-1,3.220076E-1,3.5193655E-1,3.3399788E-1,3.6630172E-1,3.891698E-1,3.351512E-1,3.6260045E-1,4.0991995E-1,4.4699052E-1,3.4394866E-1,3.9619422E-1,-1.843352E-1,3.3218867E-1,-2.4955209E-1,-9.9523686E-2,1.978218E-2,2.612331E-1,-1.4048958E-1,-2.7141142E-1,-6.527008E-2,3.1725767E-1,1.7504483E-1,-1.9524254E-1,6.141002E-1,2.0115755E-1,-2.4548905E-1,2.3268007E-1,-2.6448414E-1,-9.054086E-2,3.4828782E-1,6.7269504E-1,-7.851286E-2,-2.7586251E-1,1.0986863E-1,-2.1503468E-1],"split_indices":[4,1,36,38,39,30,30,26,10,30,27,10,21,21,21,0,0,12,30,17,27,12,15,27,1,38,27,12,10,27,30,8,0,0,0,15,0,8,8,27,27,1,1,26,17,13,27,1,27,12,13,21,0,30,0,0,30,8,0,0,0,0,0,0,0,0,0,0,0,0,0,0,0,0,0,0,0,0,0,0,0,0,0,0,0,0,0,0,0,0,0,0,0,0,0,0,0,0,0],"split_type":[0,0,0,0,0,0,0,0,0,0,0,0,0,0,0,0,0,0,0,0,0,0,0,0,0,0,0,0,0,0,0,0,0,0,0,0,0,0,0,0,0,0,0,0,0,0,0,0,0,0,0,0,0,0,0,0,0,0,0,0,0,0,0,0,0,0,0,0,0,0,0,0,0,0,0,0,0,0,0,0,0,0,0,0,0,0,0,0,0,0,0,0,0,0,0,0,0,0,0],"sum_hessian":[1.3557852E4,4.809193E3,8.748659E3,1.604651E3,3.204542E3,7.9667563E3,7.819022E2,1.0710234E2,1.4975487E3,1.0539989E3,2.1505432E3,7.511785E3,4.549712E2,3.4118134E2,4.4072092E2,1.6213171E1,9.088917E1,1.5820557E2,1.3393431E3,9.633593E2,9.063961E1,2.9696506E2,1.8535781E3,2.263475E3,5.24831E3,3.3246582E2,1.2250536E2,1.747641E2,1.6641724E2,3.578835E2,8.283739E1,1.1498763E2,4.3217926E1,2.930711E2,1.046272E3,9.325313E2,3.0828041E1,5.6822334E1,3.381728E1,1.0467361E2,1.9229146E2,1.6874967E3,1.6608136E2,3.3221185E2,1.9312633E3,4.0950977E1,5.2073594E3,3.5383564E1,2.9708224E2,6.7322754E1,5.518261E1,1.534447E2,2.1319403E1,1.5039264E2,1.6024609E1,1.7342588E1,3.4054092E2,5.3175278E1,2.966211E1,7.2660484E1,4.232715E1,8.866855E2,4.584582E1,3.152982E1,2.5292515E1,1.7353266E1,1.6464012E1,7.8086044E1,2.6587564E1,1.5955496E2,3.273649E1,1.5559314E3,1.3156529E2,1.18871414E2,4.720994E1,2.3349434E2,9.871752E1,1.6955536E3,2.3570975E2,1.8793623E1,2.2157352E1,1.3400409E2,5.073355E3,1.6590885E1,1.8792679E1,2.2233547E1,2.7484872E2,2.3583128E1,4.3739628E1,3.2337097E1,2.2845514E1,1.1619801E2,3.724669E1,1.11662415E2,3.8730213E1,5.2100903E1,2.8844003E2,3.0107409E1,2.306787E1],"tree_param":{"num_deleted":"0","num_feature":"44","num_nodes":"99","size_leaf_vector":"1"}},{"base_weights":[-3.9995696E-2,1.1381197E0,-6.566094E-1,1.0046787E0,1.2016689E0,-6.8371916E-1,1.2855673E0,7.58355E-1,1.0234901E0,1.2135737E0,1.0614246E0,-7.143696E-1,-1.0972485E-1,1.695992E0,1.0308238E0,-1.14126004E-1,3.0708623E-1,1.0294975E0,1.0226895E0,1.2232741E0,1.1223757E0,1.0787437E0,1.0311284E0,-7.222441E-1,3.540259E-1,1.0678526E0,-3.3745217E-1,4.33354E-1,5.72795E-1,1.2144785E0,1.7411545E-1,1.0346843E0,3.0684382E-1,1.0257531E0,3.067063E-1,1.1609955E0,1.2412055E0,1.1537738E0,1.0968542E0,1.0859557E0,3.134583E-1,3.1009412E-1,3.076653E-1,-7.312804E-1,5.087471E-1,5.180387E-1,8.484437E-2,-1.6560745E-1,-1.0253714E0,4.164343E-1,3.0111915E-1,3.0845302E-1,3.1112567E-1,3.0992538E-1,3.0669817E-1,3.4505588E-1,3.7130523E-1,3.7505814E-1,3.3689523E-1,3.4146443E-1,3.5756516E-1,3.3464783E-1,3.243015E-1,3.2358336E-1,3.373317E-1,-1.8321201E-1,-2.4709009E-1,2.463998E-1,-6.240361E-3,-1.0195811E-1,1.5345141E-1,-2.4521367E-1,-3.459465E-1],"categories":[],"categories_nodes":[],"categories_segments":[],"categories_sizes":[],"default_left":[0,0,0,0,0,0,0,0,0,0,0,0,0,0,0,0,0,0,0,0,0,0,0,0,0,0,0,0,0,0,0,0,0,0,0,0,0,0,0,0,0,0,0,0,0,0,0,0,0,0,0,0,0,0,0,0,0,0,0,0,0,0,0,0,0,0,0,0,0,0,0,0,0],"id":11,"left_children":[1,3,5,7,9,11,13,15,17,19,21,23,25,27,29,-1,-1,31,33,35,37,39,41,43,-1,45,47,-1,-1,49,-1,51,-1,53,-1,55,57,59,61,63,-1,-1,-1,65,67,-1,-1,69,71,-1,-1,-1,-1,-1,-1,-1,-1,-1,-1,-1,-1,-1,-1,-1,-1,-1,-1,-1,-1,-1,-1,-1,-1],"loss_changes":[7.881431E3,3.1608398E1,3.7497876E2,5.571411E0,4.215088E0,1.23571045E2,1.0249527E1,2.5773174E1,4.638672E-3,2.0581055E0,1.02890015E-1,9.9468506E1,9.548019E1,2.0130463E0,5.0037613E0,0E0,0E0,3.8146973E-3,2.4414062E-4,2.3481445E0,1.7849731E-1,2.9953003E-2,2.670288E-4,7.386279E1,0E0,2.9845604E1,3.5269356E1,0E0,0E0,1.5716438E0,0E0,4.119873E-4,0E0,1.6937256E-3,0E0,3.8897705E-1,1.7348633E0,5.8639526E-2,3.565979E-2,2.8495789E-2,0E0,0E0,0E0,7.340137E1,8.009863E0,0E0,0E0,2.8166172E1,1.5842018E0,0E0,0E0,0E0,0E0,0E0,0E0,0E0,0E0,0E0,0E0,0E0,0E0,0E0,0E0,0E0,0E0,0E0,0E0,0E0,0E0,0E0,0E0,0E0,0E0],"parents":[2147483647,0,0,1,1,2,2,3,3,4,4,5,5,6,6,7,7,8,8,9,9,10,10,11,11,12,12,13,13,14,14,17,17,18,18,19,19,20,20,21,21,22,22,23,23,25,25,26,26,29,29,31,31,33,33,35,35,36,36,37,37,38,38,39,39,43,43,44,44,47,47,48,48],"right_children":[2,4,6,8,10,12,14,16,18,20,22,24,26,28,30,-1,-1,32,34,36,38,40,42,44,-1,46,48,-1,-1,50,-1,52,-1,54,-1,56,58,60,62,64,-1,-1,-1,66,68,-1,-1,70,72,-1,-1,-1,-1,-1,-1,-1,-1,-1,-1,-1,-1,-1,-1,-1,-1,-1,-1,-1,-1,-1,-1,-1,-1],"split_conditions":[1E0,1E0,1E0,2E0,1E0,4.768963E0,1.2E1,1.4545454E-1,2.7E1,4.694779E0,1E0,1E0,8.8607594E-2,4.3015084E0,2E0,-1.14126004E-1,3.0708623E-1,1E-2,6E0,3E0,4.806349E0,1E0,1.22E2,3.108108E-1,3.540259E-1,2E0,2E0,4.33354E-1,5.72795E-1,1E0,1.7411545E-1,3E0,3.0684382E-1,1E-2,3.067063E-1,2E0,6E0,2E0,1.16E2,3E0,3.134583E-1,3.1009412E-1,3.076653E-1,9E0,3E0,5.180387E-1,8.484437E-2,1.64E2,2E0,4.164343E-1,3.0111915E-1,3.0845302E-1,3.1112567E-1,3.0992538E-1,3.0669817E-1,3.4505588E-1,3.7130523E-1,3.7505814E-1,3.3689523E-1,3.4146443E-1,3.5756516E-1,3.3464783E-1,3.243015E-1,3.2358336E-1,3.373317E-1,-1.8321201E-1,-2.4709009E-1,2.463998E-1,-6.240361E-3,-1.0195811E-1,1.5345141E-1,-2.4521367E-1,-3.459465E-1],"split_indices":[4,1,33,38,32,30,14,26,7,30,33,34,26,30,17,0,0,26,14,38,30,34,7,26,0,23,1,0,0,2,0,38,0,26,0,1,38,17,7,17,0,0,0,14,15,0,0,7,23,0,0,0,0,0,0,0,0,0,0,0,0,0,0,0,0,0,0,0,0,0,0,0,0],"split_type":[0,0,0,0,0,0,0,0,0,0,0,0,0,0,0,0,0,0,0,0,0,0,0,0,0,0,0,0,0,0,0,0,0,0,0,0,0,0,0,0,0,0,0,0,0,0,0,0,0,0,0,0,0,0,0,0,0,0,0,0,0,0,0,0,0,0,0,0,0,0,0,0,0],"sum_hessian":[1.0849359E4,3.7275059E3,7.121853E3,1.2024968E3,2.525009E3,7.023812E3,9.804121E1,8.531884E1,1.117178E3,2.3274373E3,1.9757176E2,6.667763E3,3.5604904E2,3.7546883E1,6.0494328E1,1.611905E1,6.919979E1,1.3132994E2,9.85848E2,2.1036726E3,2.2376468E2,1.2570158E2,7.187019E1,6.6401626E3,2.7600279E1,5.76969E1,2.9835214E2,1.7233162E1,2.0313723E1,4.297258E1,1.7521748E1,7.3920296E1,5.7409645E1,9.71043E1,8.887438E2,4.7028854E2,1.633384E3,1.00324814E2,1.23439865E2,1.0363229E2,2.2069284E1,4.9467464E1,2.2402727E1,6.591775E3,4.8387695E1,3.136738E1,2.632952E1,2.3871965E2,5.96325E1,2.3559849E1,1.9412731E1,1.9965412E1,5.3954884E1,3.08919E1,6.62124E1,4.121942E2,5.8094334E1,1.5179708E3,1.1541323E2,7.124665E1,2.9078157E1,5.67176E1,6.672227E1,8.703162E1,1.6600674E1,2.8590657E3,3.7327092E3,3.0427448E1,1.7960245E1,1.898602E2,4.8859447E1,2.2694933E1,3.693757E1],"tree_param":{"num_deleted":"0","num_feature":"44","num_nodes":"73","size_leaf_vector":"1"}},{"base_weights":[-3.226806E-2,7.9526675E-1,-8.449876E-2,3.2187858E-1,9.813433E-1,-2.2639962E-2,-6.5003747E-1,3.573796E-1,8.676229E-2,8.817168E-1,1.0089362E0,-8.09266E-2,5.6031156E-1,-7.0588577E-1,4.8147756E-1,1.2199181E-1,2.4126805E-3,1.0095885E0,2.0190273E-1,9.8315877E-1,1.0239521E0,-2.4896848E-1,1.03073955E-1,9.213366E-1,2.2195539E-1,-7.707222E-1,-3.24043E-1,-1.2577184E-2,2.847274E-1,-6.1176978E-2,5.136983E-2,1.0510979E0,2.8033006E-1,1.0315441E0,9.485863E-1,1.0400456E0,1.0202421E0,-3.9587998E-1,2.1962978E-1,-6.2320556E-2,6.415551E-1,8.171016E-1,1.360918E0,-5.8243376E-1,5.3100455E-1,-3.079002E-1,-8.090736E-1,2.607485E-1,-5.3526014E-1,1.9415503E-2,-1.0824158E-1,3.1860167E-1,3.1195307E-1,3.1300125E-1,3.0740377E-1,2.5053853E-1,3.073432E-1,3.1368554E-1,3.1029665E-1,3.0706918E-1,3.0560938E-1,8.15409E-3,-1.3613653E-1,4.4170592E-2,2.4030378E-1,1.9601153E-1,-5.0240174E-2,4.3105432E-1,1.0115618E-1,1.8522093E-1,3.058551E-1,3.155133E-1,4.9503818E-1,-2.2407605E-1,-1.0945155E-1,9.1192216E-2,2.8588286E-1,-1.7364977E-1,4.1993342E-2,-2.501329E-1,-1.2864004E-1,-2.0621948E-1,5.7337012E-2],"categories":[],"categories_nodes":[],"categories_segments":[],"categories_sizes":[],"default_left":[0,0,0,0,0,0,0,0,0,0,0,0,0,0,0,0,0,0,0,0,0,0,0,0,0,0,0,0,0,0,0,0,0,0,0,0,0,0,0,0,0,0,0,0,0,0,0,0,0,0,0,0,0,0,0,0,0,0,0,0,0,0,0,0,0,0,0,0,0,0,0,0,0,0,0,0,0,0,0,0,0,0,0],"id":12,"left_children":[1,3,5,7,9,11,13,-1,15,17,19,21,23,25,27,-1,29,31,-1,33,35,37,39,41,43,45,47,-1,-1,49,-1,51,-1,53,55,57,59,61,63,65,67,69,71,73,75,77,79,-1,81,-1,-1,-1,-1,-1,-1,-1,-1,-1,-1,-1,-1,-1,-1,-1,-1,-1,-1,-1,-1,-1,-1,-1,-1,-1,-1,-1,-1,-1,-1,-1,-1,-1,-1],"loss_changes":[3.8071628E2,4.606302E1,2.8984933E2,3.0160526E1,1.03125E0,2.537638E2,5.1622437E1,0E0,3.1335945E0,2.1723175E0,1.1303711E-1,2.0993185E2,8.292526E1,1.9272583E1,9.404325E0,0E0,9.867058E-1,1.5678024E-1,0E0,1.8030548E-1,1.0345459E-2,2.4429936E2,2.886396E2,1.5047607E1,8.71155E1,1.18116455E1,2.8478231E1,0E0,0E0,2.5184314E0,0E0,3.2310486E-3,0E0,2.89917E-3,5.428314E-1,3.5476685E-4,3.0517578E-5,6.618759E1,3.564919E1,1.8657777E2,1.8433743E2,1.0730499E1,5.6283264E0,3.4808922E0,2.4250862E1,6.179643E0,5.772461E0,0E0,1.0609644E1,0E0,0E0,0E0,0E0,0E0,0E0,0E0,0E0,0E0,0E0,0E0,0E0,0E0,0E0,0E0,0E0,0E0,0E0,0E0,0E0,0E0,0E0,0E0,0E0,0E0,0E0,0E0,0E0,0E0,0E0,0E0,0E0,0E0,0E0],"parents":[2147483647,0,0,1,1,2,2,3,3,4,4,5,5,6,6,8,8,9,9,10,10,11,11,12,12,13,13,14,14,16,16,17,17,19,19,20,20,21,21,22,22,23,23,24,24,25,25,26,26,29,29,31,31,33,33,34,34,35,35,36,36,37,37,38,38,39,39,40,40,41,41,42,42,43,43,44,44,45,45,46,46,48,48],"right_children":[2,4,6,8,10,12,14,-1,16,18,20,22,24,26,28,-1,30,32,-1,34,36,38,40,42,44,46,48,-1,-1,50,-1,52,-1,54,56,58,60,62,64,66,68,70,72,74,76,78,80,-1,82,-1,-1,-1,-1,-1,-1,-1,-1,-1,-1,-1,-1,-1,-1,-1,-1,-1,-1,-1,-1,-1,-1,-1,-1,-1,-1,-1,-1,-1,-1,-1,-1,-1,-1],"split_conditions":[2E0,2E0,3E0,1E0,3.8693314E0,7E0,2.5E1,3.573796E-1,3.6258147E0,2.9E1,4.0784187E0,1E0,5.1282052E-2,4E0,6E0,1.2199181E-1,3.977805E0,4E0,2.0190273E-1,4E0,1.2E1,5E0,2.5E1,8E0,7.1E1,3E0,3.3E1,-1.2577184E-2,2.847274E-1,3.8693314E0,5.136983E-2,4.3956045E-2,2.8033006E-1,3.9500637E0,5E0,3E0,1E0,3E0,1E0,3.6E1,4E1,1.9E1,1E0,3.3E1,2.2E1,1.9E1,1E0,2.607485E-1,9.9E1,1.9415503E-2,-1.0824158E-1,3.1860167E-1,3.1195307E-1,3.1300125E-1,3.0740377E-1,2.5053853E-1,3.073432E-1,3.1368554E-1,3.1029665E-1,3.0706918E-1,3.0560938E-1,8.15409E-3,-1.3613653E-1,4.4170592E-2,2.4030378E-1,1.9601153E-1,-5.0240174E-2,4.3105432E-1,1.0115618E-1,1.8522093E-1,3.058551E-1,3.155133E-1,4.9503818E-1,-2.2407605E-1,-1.0945155E-1,9.1192216E-2,2.8588286E-1,-1.7364977E-1,4.1993342E-2,-2.501329E-1,-1.2864004E-1,-2.0621948E-1,5.7337012E-2],"split_indices":[15,10,18,10,30,21,12,0,30,7,30,12,26,15,21,0,30,21,0,21,9,21,9,11,7,38,10,0,0,30,0,26,0,30,21,38,12,38,36,7,13,9,17,10,9,9,32,0,13,0,0,0,0,0,0,0,0,0,0,0,0,0,0,0,0,0,0,0,0,0,0,0,0,0,0,0,0,0,0,0,0,0,0],"split_type":[0,0,0,0,0,0,0,0,0,0,0,0,0,0,0,0,0,0,0,0,0,0,0,0,0,0,0,0,0,0,0,0,0,0,0,0,0,0,0,0,0,0,0,0,0,0,0,0,0,0,0,0,0,0,0,0,0,0,0,0,0,0,0,0,0,0,0,0,0,0,0,0,0,0,0,0,0,0,0,0,0,0,0],"sum_hessian":[8.808248E3,5.229355E2,8.2853125E3,1.4755362E2,3.753819E2,7.468415E3,8.16897E2,3.1409512E1,1.16144104E2,8.1420006E1,2.9396188E2,6.789559E3,6.788561E2,7.7847406E2,3.8422913E1,2.4234785E1,9.190932E1,5.0486217E1,3.0933784E1,1.0821561E2,1.8574628E2,3.5486716E3,3.2408875E3,3.2842575E2,3.5043033E2,6.65476E2,1.12998E2,1.8129608E1,2.0293304E1,6.676044E1,2.5148876E1,3.2519997E1,1.796622E1,4.5094177E1,6.3121426E1,3.47792E1,1.5096707E2,2.7016658E3,8.470057E2,2.4793533E3,7.615342E2,2.6547607E2,6.2949696E1,9.726613E1,2.5316418E2,5.0925064E1,6.1455096E2,1.6994005E1,9.600399E1,4.700786E1,1.975258E1,1.6498001E1,1.6021996E1,1.6572077E1,2.85221E1,2.530098E1,3.7820446E1,1.7589285E1,1.7189915E1,4.7835087E1,1.0313199E2,3.252787E2,2.3763872E3,7.532151E2,9.379062E1,3.1759628E2,2.161757E3,2.1077974E2,5.5075446E2,1.3363576E2,1.3184032E2,3.042362E1,3.2526073E1,5.5392063E1,4.187407E1,1.6459962E2,8.856456E1,3.173101E1,1.9194056E1,5.770639E2,3.74871E1,7.93789E1,1.6625093E1],"tree_param":{"num_deleted":"0","num_feature":"44","num_nodes":"83","size_leaf_vector":"1"}},{"base_weights":[-2.4919197E-2,1.0956792E0,-5.600114E-1,9.872965E-1,1.1415788E0,-6.324905E-1,5.9316296E-2,9.205757E-1,1.0063088E0,1.1492844E0,1.0446794E0,-6.890227E-1,6.22245E-1,4.51952E-1,-3.030799E-1,9.9712133E-1,5.399976E-2,1.010345E0,2.7804822E-1,1.1099422E0,1.1672169E0,1.0577458E0,3.064533E-1,-2.7983839E-2,-7.113376E-1,8.1197673E-1,7.8949764E-2,-3.733757E-2,1.439154E0,6.590318E-2,-7.2667396E-1,1.0196989E0,2.5663465E-1,9.8965406E-1,1.0129427E0,1.1143261E0,1.0600128E0,1.1753676E0,1.0957086E0,1.052112E0,3.2464132E-1,-3.2017523E-1,8.510027E-1,-7.435097E-1,-2.740136E-1,9.763463E-1,2.598327E-1,-3.1533554E-1,2.0964493E-1,3.0132636E-1,-7.6177955E-1,1.1319041E0,1.805624E0,-2.1772423E-1,3.6969906E-1,-8.3750993E-1,-1.9560115E-2,3.065747E-1,3.042864E-1,3.0496246E-1,2.8412688E-1,3.0253538E-1,3.049195E-1,3.3320776E-1,3.4714818E-1,3.219684E-1,3.1498513E-1,3.5372698E-1,3.3362415E-1,3.3144784E-1,3.1723505E-1,3.1226256E-1,3.2062626E-1,1.4531283E-2,-1.4788337E-1,1.962877E-1,3.1838518E-1,-1.4481626E-1,-2.3756011E-1,6.602056E-2,-1.3368537E-1,3.6461583E-1,1.5325823E-1,3.6922085E-1,-1.8022709E-1,-1.7387094E-2,-1.7341399E-1,-1.3014795E-1,2.2249332E-1,-3.1453353E-1,-1.505718E-1,4.274221E-1,2.8981313E-1,6.6725045E-1,4.440638E-1,-2.1309908E-1,-2.6991218E-2,-1.5874466E-1,-2.6612338E-1],"categories":[],"categories_nodes":[],"categories_segments":[],"categories_sizes":[],"default_left":[0,0,0,0,0,0,0,0,0,0,0,0,0,0,0,0,0,0,0,0,0,0,0,0,0,0,0,0,0,0,0,0,0,0,0,0,0,0,0,0,0,0,0,0,0,0,0,0,0,0,0,0,0,0,0,0,0,0,0,0,0,0,0,0,0,0,0,0,0,0,0,0,0,0,0,0,0,0,0,0,0,0,0,0,0,0,0,0,0,0,0,0,0,0,0,0,0,0,0],"id":13,"left_children":[1,3,5,7,9,11,13,15,17,19,21,23,25,27,29,31,-1,33,-1,35,37,39,-1,41,43,45,47,49,51,53,55,57,-1,59,61,63,65,67,69,71,-1,73,75,77,79,81,83,85,-1,87,89,91,93,95,-1,97,-1,-1,-1,-1,-1,-1,-1,-1,-1,-1,-1,-1,-1,-1,-1,-1,-1,-1,-1,-1,-1,-1,-1,-1,-1,-1,-1,-1,-1,-1,-1,-1,-1,-1,-1,-1,-1,-1,-1,-1,-1,-1,-1],"loss_changes":[4.9772266E3,1.3344238E1,2.5218176E2,1.0115967E0,1.4064941E0,3.567495E2,8.3749275E1,1.0032761E1,1.9854736E-1,1.2307129E0,4.1275024E-2,7.098999E1,2.2350586E1,1.3645833E2,4.783983E1,5.124054E-1,0E0,3.112793E-2,0E0,1.1883545E-1,6.982422E-1,1.1428833E-2,0E0,4.036225E1,6.549927E1,1.4584602E1,1.3716912E1,4.6342026E1,1.0540192E1,5.411866E1,1.0446655E1,9.3078613E-4,0E0,7.476044E-2,7.446289E-3,7.739258E-2,5.0964355E-3,2.5268555E-1,4.2037964E-2,1.272583E-2,0E0,7.5116396E0,1.6211777E0,5.4686035E1,2.7047941E1,1.3778969E1,3.0804367E1,2.3192177E0,0E0,4.1665066E1,4.4820747E0,2.4725266E0,5.813568E0,8.28072E0,0E0,1.864914E0,0E0,0E0,0E0,0E0,0E0,0E0,0E0,0E0,0E0,0E0,0E0,0E0,0E0,0E0,0E0,0E0,0E0,0E0,0E0,0E0,0E0,0E0,0E0,0E0,0E0,0E0,0E0,0E0,0E0,0E0,0E0,0E0,0E0,0E0,0E0,0E0,0E0,0E0,0E0,0E0,0E0,0E0,0E0],"parents":[2147483647,0,0,1,1,2,2,3,3,4,4,5,5,6,6,7,7,8,8,9,9,10,10,11,11,12,12,13,13,14,14,15,15,17,17,19,19,20,20,21,21,23,23,24,24,25,25,26,26,27,27,28,28,29,29,30,30,31,31,33,33,34,34,35,35,36,36,37,37,38,38,39,39,41,41,42,42,43,43,44,44,45,45,46,46,47,47,49,49,50,50,51,51,52,52,53,53,55,55],"right_children":[2,4,6,8,10,12,14,16,18,20,22,24,26,28,30,32,-1,34,-1,36,38,40,-1,42,44,46,48,50,52,54,56,58,-1,60,62,64,66,68,70,72,-1,74,76,78,80,82,84,86,-1,88,90,92,94,96,-1,98,-1,-1,-1,-1,-1,-1,-1,-1,-1,-1,-1,-1,-1,-1,-1,-1,-1,-1,-1,-1,-1,-1,-1,-1,-1,-1,-1,-1,-1,-1,-1,-1,-1,-1,-1,-1,-1,-1,-1,-1,-1,-1,-1],"split_conditions":[1E0,1E0,1E0,3.9217212E0,1E0,1E0,4.3066845E0,9E0,1E0,1E0,1E0,1E0,1E0,3.1746034E-2,1.4084508E-1,8E0,5.399976E-2,4.0022683E0,2.7804822E-1,4.694779E0,1.5E1,1E0,3.064533E-1,2.5641026E-2,4.714987E0,2E0,1.2E1,1E0,4.167219E0,4.753649E0,2.7272728E-1,1E0,2.5663465E-1,8E0,1.4705882E-2,2E0,1.2E1,5E0,3.6E1,1E0,3.2464132E-1,1E0,4.261096E0,7E0,3E0,1.4E1,1E0,4.2505717E0,2.0964493E-1,8E0,4.144538E0,3.9966483E0,4.22952E0,1.1764706E-2,3.6969906E-1,4.4931927E0,-1.9560115E-2,3.065747E-1,3.042864E-1,3.0496246E-1,2.8412688E-1,3.0253538E-1,3.049195E-1,3.3320776E-1,3.4714818E-1,3.219684E-1,3.1498513E-1,3.5372698E-1,3.3362415E-1,3.3144784E-1,3.1723505E-1,3.1226256E-1,3.2062626E-1,1.4531283E-2,-1.4788337E-1,1.962877E-1,3.1838518E-1,-1.4481626E-1,-2.3756011E-1,6.602056E-2,-1.3368537E-1,3.6461583E-1,1.5325823E-1,3.6922085E-1,-1.8022709E-1,-1.7387094E-2,-1.7341399E-1,-1.3014795E-1,2.2249332E-1,-3.1453353E-1,-1.505718E-1,4.274221E-1,2.8981313E-1,6.6725045E-1,4.440638E-1,-2.1309908E-1,-2.6991218E-2,-1.5874466E-1,-2.6612338E-1],"split_indices":[4,1,36,30,32,32,30,14,36,39,33,1,35,26,26,14,0,30,0,30,12,35,0,26,30,1,14,32,30,30,26,12,0,14,26,1,12,15,12,36,0,39,30,14,15,14,39,30,0,14,30,30,30,26,0,30,0,0,0,0,0,0,0,0,0,0,0,0,0,0,0,0,0,0,0,0,0,0,0,0,0,0,0,0,0,0,0,0,0,0,0,0,0,0,0,0,0,0,0],"split_type":[0,0,0,0,0,0,0,0,0,0,0,0,0,0,0,0,0,0,0,0,0,0,0,0,0,0,0,0,0,0,0,0,0,0,0,0,0,0,0,0,0,0,0,0,0,0,0,0,0,0,0,0,0,0,0,0,0,0,0,0,0,0,0,0,0,0,0,0,0,0,0,0,0,0,0,0,0,0,0,0,0,0,0,0,0,0,0,0,0,0,0,0,0,0,0,0,0,0,0],"sum_hessian":[8.300588E3,2.6826143E3,5.617973E3,7.98091E2,1.8845233E3,5.0293906E3,5.885825E2,1.7698984E2,6.211012E2,1.7456986E3,1.3882466E2,4.8125605E3,2.1682997E2,2.825052E2,3.0607733E2,1.604095E2,1.6580347E1,5.9108105E2,3.0020151E1,5.4657874E2,1.1991199E3,8.875403E1,5.0070633E1,1.5715486E2,4.655406E3,1.6070668E2,5.6123287E1,1.888865E2,9.361869E1,1.6358305E2,1.424943E2,1.3835764E2,2.2051851E1,6.594698E1,5.2513403E2,5.0245392E2,4.412484E1,1.0764214E3,1.2269841E2,7.211284E1,1.6641186E1,1.1794739E2,3.920748E1,4.336395E3,3.19011E2,1.2383975E2,3.6866924E1,3.4303135E1,2.1820152E1,1.2871431E2,6.0172188E1,5.0924435E1,4.2694256E1,1.3158632E2,3.1996729E1,1.22044136E2,2.0450155E1,9.809964E1,4.0258003E1,4.0411274E1,2.5535707E1,2.2839215E2,2.9674188E2,4.6317133E2,3.9282578E1,1.9058783E1,2.5066057E1,1.01662177E3,5.979968E1,9.907732E1,2.362109E1,4.3060413E1,2.9052425E1,3.763945E1,8.030794E1,2.0258308E1,1.8949171E1,6.783094E2,3.6580854E3,8.223585E1,2.3677515E2,8.182141E1,4.2018345E1,1.7323383E1,1.9543541E1,1.7328123E1,1.6975014E1,4.821461E1,8.04997E1,2.8610569E1,3.1561617E1,1.8413006E1,3.251143E1,1.8674278E1,2.4019976E1,2.7097595E1,1.0448872E2,1.690235E1,1.05141785E2],"tree_param":{"num_deleted":"0","num_feature":"44","num_nodes":"99","size_leaf_vector":"1"}},{"base_weights":[-2.0466803E-2,1.0633843E0,-4.8695722E-1,-5.3319626E-2,1.0756131E0,-6.060138E-1,-7.939595E-2,1.0117851E0,1.1013236E0,8.9416504E-2,-6.368E-1,2.1567203E-1,-6.470373E-1,3.0476597E-1,1.0114115E0,1.0757259E0,1.1129696E0,-2.966787E-1,5.8497906E-1,-6.511528E-1,6.906269E-1,-2.0659895E-1,5.9555763E-1,-7.6737595E-1,2.2049661E-1,3.0289626E-1,3.036837E-1,1.072626E0,3.4204137E-1,1.0633274E0,1.12091E0,9.7867865E-3,-4.4313887E-1,4.3893373E-1,2.967934E-1,-7.6073146E-1,-4.9198562E-1,9.611637E-2,2.897949E-1,3.1169766E-1,-2.6989302E-1,1.7601994E0,2.0244585E-1,1.1441055E-1,-8.288051E-1,3.2260323E-1,3.12088E-1,3.1503856E-1,3.2584697E-1,3.3756727E-1,3.212163E-1,-1.0071725E-1,-2.0317353E-1,2.5687522E-1,4.667552E-2,-2.3420195E-1,1.172017E-1,-2.6341152E-1,-1.09974936E-1,-1.089023E-1,1.3323765E-1,7.247092E-1,3.3950558E-1,-2.0615423E-2,3.1788975E-1,-2.1993048E-1,-2.9694054E-1],"categories":[],"categories_nodes":[],"categories_segments":[],"categories_sizes":[],"default_left":[0,0,0,0,0,0,0,0,0,0,0,0,0,0,0,0,0,0,0,0,0,0,0,0,0,0,0,0,0,0,0,0,0,0,0,0,0,0,0,0,0,0,0,0,0,0,0,0,0,0,0,0,0,0,0,0,0,0,0,0,0,0,0,0,0,0,0],"id":14,"left_children":[1,3,5,-1,7,9,11,13,15,17,19,21,23,-1,25,27,29,31,33,35,37,39,41,43,-1,-1,-1,45,-1,47,49,-1,51,53,-1,55,57,-1,-1,-1,59,61,63,-1,65,-1,-1,-1,-1,-1,-1,-1,-1,-1,-1,-1,-1,-1,-1,-1,-1,-1,-1,-1,-1,-1,-1],"loss_changes":[3.4249128E3,3.0935303E1,2.2978687E2,0E0,3.3115234E0,7.846704E1,1.7932219E2,1.8310547E-4,4.281006E-1,2.97276E1,6.686694E1,1.1300337E2,6.0899918E1,0E0,6.1035156E-5,8.898926E-2,3.8891602E-1,4.212017E0,4.0172863E0,6.055786E1,3.8268414E0,2.6301098E1,1.6977977E2,2.3770462E1,0E0,0E0,0E0,3.6956787E-2,0E0,4.0298462E-2,1.8383789E-1,0E0,1.5196495E0,5.9102545E0,0E0,4.7216675E1,6.8537506E1,0E0,0E0,0E0,2.1107698E1,3.8553864E1,6.4444084E1,0E0,4.9261017E0,0E0,0E0,0E0,0E0,0E0,0E0,0E0,0E0,0E0,0E0,0E0,0E0,0E0,0E0,0E0,0E0,0E0,0E0,0E0,0E0,0E0,0E0],"parents":[2147483647,0,0,1,1,2,2,4,4,5,5,6,6,7,7,8,8,9,9,10,10,11,11,12,12,14,14,15,15,16,16,17,17,18,18,19,19,20,20,21,21,22,22,23,23,27,27,29,29,30,30,32,32,33,33,35,35,36,36,40,40,41,41,42,42,44,44],"right_children":[2,4,6,-1,8,10,12,14,16,18,20,22,24,-1,26,28,30,32,34,36,38,40,42,44,-1,-1,-1,46,-1,48,50,-1,52,54,-1,56,58,-1,-1,-1,60,62,64,-1,66,-1,-1,-1,-1,-1,-1,-1,-1,-1,-1,-1,-1,-1,-1,-1,-1,-1,-1,-1,-1,-1,-1],"split_conditions":[1E0,7E0,2.5E1,-5.3319626E-2,1E0,1E0,2E0,2E0,1E0,2E0,1E0,1E0,1.7283951E-1,3.0476597E-1,2E0,4E0,1.4473684E-1,1E0,4.2987013E0,5E0,1.8E1,3.884155E0,4E1,1.3043478E-1,2.2049661E-1,3.0289626E-1,3.036837E-1,4.685952E0,3.4204137E-1,1.3432837E-1,5E0,9.7867865E-3,2.244898E-1,4E0,2.967934E-1,4.926056E0,1.5E1,9.611637E-2,2.897949E-1,3.1169766E-1,5E0,4E0,3.2E1,1.1441055E-1,5.5E1,3.2260323E-1,3.12088E-1,3.1503856E-1,3.2584697E-1,3.3756727E-1,3.212163E-1,-1.0071725E-1,-2.0317353E-1,2.5687522E-1,4.667552E-2,-2.3420195E-1,1.172017E-1,-2.6341152E-1,-1.09974936E-1,-1.089023E-1,1.3323765E-1,7.247092E-1,3.3950558E-1,-2.0615423E-2,3.1788975E-1,-2.1993048E-1,-2.9694054E-1],"split_indices":[4,9,9,0,1,1,1,10,39,10,33,12,26,0,16,17,27,39,30,21,9,30,13,27,0,0,0,30,0,27,16,0,27,21,0,30,9,0,0,0,21,12,9,0,13,0,0,0,0,0,0,0,0,0,0,0,0,0,0,0,0,0,0,0,0,0,0],"split_type":[0,0,0,0,0,0,0,0,0,0,0,0,0,0,0,0,0,0,0,0,0,0,0,0,0,0,0,0,0,0,0,0,0,0,0,0,0,0,0,0,0,0,0,0,0,0,0,0,0,0,0,0,0,0,0,0,0,0,0,0,0,0,0,0,0,0,0],"sum_hessian":[6.7738745E3,2.0382266E3,4.735648E3,1.9886658E1,2.0183398E3,3.6650227E3,1.0706254E3,5.79557E2,1.4387828E3,1.5536938E2,3.5096533E3,7.044445E2,3.6618082E2,4.829888E1,5.312581E2,4.4991428E2,9.888685E2,8.732967E1,6.803971E1,3.4721116E3,3.754192E1,3.3361063E2,3.7083386E2,3.3685016E2,2.933064E1,1.7568756E2,3.555706E2,4.2926093E2,2.0653349E1,1.363686E2,8.5249994E2,2.6883125E1,6.044655E1,4.9985706E1,1.8054003E1,2.0563884E3,1.415723E3,1.6012758E1,2.1529163E1,1.613221E1,3.1747842E2,9.358271E1,2.7725116E2,1.7098433E1,3.1975174E2,3.959629E2,3.3298058E1,8.641967E1,4.9948944E1,7.8501404E2,6.748587E1,4.1436043E1,1.9010504E1,2.0213667E1,2.977204E1,2.0213796E3,3.500886E1,3.471171E2,1.0686058E3,2.808531E2,3.662533E1,4.5807743E1,4.7774963E1,2.1062215E2,6.662901E1,2.0054257E2,1.1920915E2],"tree_param":{"num_deleted":"0","num_feature":"44","num_nodes":"67","size_leaf_vector":"1"}},{"base_weights":[-1.6705032E-2,1.0392661E0,-4.1145453E-1,-3.5574608E-2,1.0550272E0,-4.952955E-1,1.8601862E-1,3.026111E-1,1.0733341E0,-6.516997E-1,-1.3711812E-1,-9.090097E-1,3.935874E-1,1.0553255E0,1.0814617E0,1.845931E-2,-6.8997914E-1,8.9370295E-2,-6.879459E-1,-1.2180042E0,-4.929455E-2,7.0718247E-1,-2.4917547E-1,1.0513449E0,3.2905906E-1,1.0390613E0,1.0860276E0,-1.5361704E-1,2.2564213E-1,-7.292841E-1,-2.6053965E-1,4.6967737E-2,5.261092E-1,9.912847E-2,-7.932711E-1,-5.1472133E-1,-1.0235825E0,1.0633062E0,4.3707352E-2,-7.395522E-1,6.8309194E-1,3.1656706E-1,3.1039494E-1,3.1416374E-1,3.0842453E-1,3.2494977E-1,3.3742866E-1,1.6674346E-1,-9.209819E-2,-2.4551632E-1,-1.9106165E-1,2.4174075E-1,-1.13865346E-1,2.9861277E-2,-2.1791966E-1,4.044697E-2,-2.5643006E-1,-3.2205293E-1,-2.8996098E-1,-1.5150036E-1,4.2623982E-1,-2.4217774E-1,4.5078784E-1,-1.5013444E-1,-3.0998355E-1,2.9002708E-1,7.544435E-2],"categories":[],"categories_nodes":[],"categories_segments":[],"categories_sizes":[],"default_left":[0,0,0,0,0,0,0,0,0,0,0,0,0,0,0,0,0,0,0,0,0,0,0,0,0,0,0,0,0,0,0,0,0,0,0,0,0,0,0,0,0,0,0,0,0,0,0,0,0,0,0,0,0,0,0,0,0,0,0,0,0,0,0,0,0,0,0],"id":15,"left_children":[1,3,5,-1,7,9,11,-1,13,15,17,19,21,23,25,27,29,31,33,35,-1,37,39,41,-1,43,45,47,-1,49,51,53,-1,-1,55,-1,57,59,61,63,65,-1,-1,-1,-1,-1,-1,-1,-1,-1,-1,-1,-1,-1,-1,-1,-1,-1,-1,-1,-1,-1,-1,-1,-1,-1,-1],"loss_changes":[2.3596523E3,2.8109863E1,2.0640375E2,0E0,1.2879639E0,2.0242297E2,1.152492E2,0E0,1.5856934E-1,6.452112E1,1.3701587E2,1.8591705E1,8.591868E1,5.52063E-2,1.4459229E-1,1.7157452E1,4.015857E1,5.4922688E1,3.432408E1,5.524948E0,0E0,6.768939E1,6.389764E1,1.9256592E-2,0E0,5.7754517E-3,7.434082E-2,1.197783E1,0E0,1.7947876E1,2.5317993E1,3.0854551E1,0E0,0E0,1.6552322E1,0E0,1.1621857E-1,1.0451828E2,1.2422674E2,6.4320908E0,5.8980846E0,0E0,0E0,0E0,0E0,0E0,0E0,0E0,0E0,0E0,0E0,0E0,0E0,0E0,0E0,0E0,0E0,0E0,0E0,0E0,0E0,0E0,0E0,0E0,0E0,0E0,0E0],"parents":[2147483647,0,0,1,1,2,2,4,4,5,5,6,6,8,8,9,9,10,10,11,11,12,12,13,13,14,14,15,15,16,16,17,17,18,18,19,19,21,21,22,22,23,23,25,25,26,26,27,27,29,29,30,30,31,31,34,34,36,36,37,37,38,38,39,39,40,40],"right_children":[2,4,6,-1,8,10,12,-1,14,16,18,20,22,24,26,28,30,32,34,36,-1,38,40,42,-1,44,46,48,-1,50,52,54,-1,-1,56,-1,58,60,62,64,66,-1,-1,-1,-1,-1,-1,-1,-1,-1,-1,-1,-1,-1,-1,-1,-1,-1,-1,-1,-1,-1,-1,-1,-1,-1,-1],"split_conditions":[1E0,7E0,1E0,-3.5574608E-2,1E0,2.4E1,1.5E1,3.026111E-1,1E0,1E0,2E0,1E0,1.7E1,2E0,1.369863E-1,4.144538E0,4.714987E0,4E1,3E0,4.1859794E0,-4.929455E-2,4.4219136E0,2.5E1,7.1E1,3.2905906E-1,4.714987E0,2E0,3E0,2.2564213E-1,1.8E1,3E0,3E0,5.261092E-1,9.912847E-2,1.3043478E-1,-5.1472133E-1,4.7E1,4.1E1,4.7E1,2E0,5.9E1,3.1656706E-1,3.1039494E-1,3.1416374E-1,3.0842453E-1,3.2494977E-1,3.3742866E-1,1.6674346E-1,-9.209819E-2,-2.4551632E-1,-1.9106165E-1,2.4174075E-1,-1.13865346E-1,2.9861277E-2,-2.1791966E-1,4.044697E-2,-2.5643006E-1,-3.2205293E-1,-2.8996098E-1,-1.5150036E-1,4.2623982E-1,-2.4217774E-1,4.5078784E-1,-1.5013444E-1,-3.0998355E-1,2.9002708E-1,7.544435E-2],"split_indices":[4,9,36,0,1,9,9,0,39,1,1,3,9,18,27,30,30,9,38,30,0,30,9,7,0,30,18,38,0,9,38,18,0,0,27,0,13,7,13,1,13,0,0,0,0,0,0,0,0,0,0,0,0,0,0,0,0,0,0,0,0,0,0,0,0,0,0],"split_type":[0,0,0,0,0,0,0,0,0,0,0,0,0,0,0,0,0,0,0,0,0,0,0,0,0,0,0,0,0,0,0,0,0,0,0,0,0,0,0,0,0,0,0,0,0,0,0,0,0,0,0,0,0,0,0,0,0,0,0,0,0,0,0,0,0,0,0],"sum_hessian":[5.6607563E3,1.5403243E3,4.1204316E3,2.068569E1,1.5196387E3,3.6133813E3,5.070505E2,4.3045102E2,1.0891876E3,2.5151133E3,1.0982681E3,8.07982E1,4.262523E2,3.3871783E2,7.504698E2,1.3589981E2,2.3792134E3,7.782627E2,3.2000537E2,5.7103767E1,2.3694435E1,2.8648218E2,1.3977011E2,3.09105E2,2.9612812E1,7.2966675E1,6.775031E2,1.10081085E2,2.5818727E1,2.179712E3,1.9950166E2,7.589275E2,1.9335203E1,2.999403E1,2.9001135E2,1.603954E1,4.1064228E1,1.8641983E2,1.00062355E2,9.159246E1,4.8177647E1,2.5081485E2,5.8290165E1,4.1858223E1,3.110845E1,6.309013E2,4.6601803E1,1.9568184E1,9.05129E1,1.1097184E3,1.0699934E3,2.0029991E1,1.7947166E2,7.106231E2,4.830437E1,1.8021679E1,2.7198965E2,2.1895063E1,1.9169165E1,3.460558E1,1.5181425E2,6.319902E1,3.686333E1,5.049163E1,4.110083E1,2.907079E1,1.9106857E1],"tree_param":{"num_deleted":"0","num_feature":"44","num_nodes":"67","size_leaf_vector":"1"}},{"base_weights":[-1.4102991E-2,1.0197376E0,-3.463652E-1,9.3870443E-1,1.0534202E0,-4.173875E-1,1.2632477E-1,7.9477143E-1,9.834113E-1,1.0405482E0,1.0591966E0,-4.429773E-1,7.615473E-1,3.4113184E-1,-1.9278106E-1,3.0303782E-1,5.5527277E-2,9.134826E-1,9.994462E-1,1.0384042E0,3.1896716E-1,1.0624382E0,1.0331649E0,-3.7796307E-1,-7.9906666E-1,9.431896E-1,1.2287514E-1,-1.453298E-2,9.5955503E-1,-7.9406816E-1,1.2390633E-1,3.020224E-1,2.2866584E-1,9.859933E-1,1.0087948E0,1.0410368E0,1.0270108E0,1.063981E0,3.1178132E-1,1.0378776E0,3.0630827E-1,-4.2597923E-1,1.515034E-1,-8.48136E-1,4.320796E-2,1.7009388E-1,3.8780478E-1,5.893747E-1,-2.4985513E-1,3.713006E-2,1.1514359E0,-9.080591E-2,-9.5982534E-1,4.4241875E-1,-4.3551207E-1,2.8778547E-1,3.0181727E-1,3.020171E-1,3.0560103E-1,3.119119E-1,3.1653154E-1,3.0940908E-1,3.059486E-1,3.1877312E-1,3.2747725E-1,3.126911E-1,3.0978727E-1,-6.839132E-2,-1.6034538E-1,9.1379195E-2,-1.1537395E-1,-2.647821E-1,-1.8851018E-1,-8.8589214E-4,3.5528842E-1,-1.2936397E-1,3.040793E-1,4.207525E-1,1.26672E-1,-3.093102E-1,-2.7481362E-1,3.512576E-1,-9.063068E-2,-2.4932674E-1,-6.3105464E-2],"categories":[],"categories_nodes":[],"categories_segments":[],"categories_sizes":[],"default_left":[0,0,0,0,0,0,0,0,0,0,0,0,0,0,0,0,0,0,0,0,0,0,0,0,0,0,0,0,0,0,0,0,0,0,0,0,0,0,0,0,0,0,0,0,0,0,0,0,0,0,0,0,0,0,0,0,0,0,0,0,0,0,0,0,0,0,0,0,0,0,0,0,0,0,0,0,0,0,0,0,0,0,0,0,0],"id":16,"left_children":[1,3,5,7,9,11,13,15,17,19,21,23,25,27,29,-1,-1,31,33,35,-1,37,39,41,43,45,-1,47,49,51,53,-1,-1,55,57,59,61,63,-1,65,-1,67,69,71,-1,-1,-1,73,75,-1,77,-1,79,81,83,-1,-1,-1,-1,-1,-1,-1,-1,-1,-1,-1,-1,-1,-1,-1,-1,-1,-1,-1,-1,-1,-1,-1,-1,-1,-1,-1,-1,-1,-1],"loss_changes":[1.6389045E3,3.166504E0,1.2121631E2,2.191864E0,6.0302734E-2,9.470068E1,3.232944E1,1.0602131E1,2.90802E-1,1.1566162E-2,4.699707E-2,7.11272E1,4.2629585E0,6.2002415E1,3.6133198E1,0E0,0E0,6.8348694E-1,2.5878906E-2,6.210327E-3,0E0,1.7150879E-2,2.8381348E-3,6.6049225E1,2.1951263E1,5.782757E0,0E0,2.5432997E1,1.6505913E1,5.3314743E0,2.2146433E1,0E0,0E0,4.576111E-2,1.8157959E-3,2.7618408E-3,6.1798096E-4,1.751709E-2,0E0,2.975464E-4,0E0,5.1176758E1,1.772874E1,3.4151917E0,0E0,0E0,0E0,1.7683794E1,2.9508703E1,0E0,1.5324608E1,0E0,1.5189743E-1,4.2952972E1,4.0159235E0,0E0,0E0,0E0,0E0,0E0,0E0,0E0,0E0,0E0,0E0,0E0,0E0,0E0,0E0,0E0,0E0,0E0,0E0,0E0,0E0,0E0,0E0,0E0,0E0,0E0,0E0,0E0,0E0,0E0,0E0],"parents":[2147483647,0,0,1,1,2,2,3,3,4,4,5,5,6,6,7,7,8,8,9,9,10,10,11,11,12,12,13,13,14,14,17,17,18,18,19,19,21,21,22,22,23,23,24,24,25,25,27,27,28,28,29,29,30,30,33,33,34,34,35,35,36,36,37,37,39,39,41,41,42,42,43,43,47,47,48,48,50,50,52,52,53,53,54,54],"right_children":[2,4,6,8,10,12,14,16,18,20,22,24,26,28,30,-1,-1,32,34,36,-1,38,40,42,44,46,-1,48,50,52,54,-1,-1,56,58,60,62,64,-1,66,-1,68,70,72,-1,-1,-1,74,76,-1,78,-1,80,82,84,-1,-1,-1,-1,-1,-1,-1,-1,-1,-1,-1,-1,-1,-1,-1,-1,-1,-1,-1,-1,-1,-1,-1,-1,-1,-1,-1,-1,-1,-1],"split_conditions":[1E0,1E0,1E0,3.9217212E0,1E0,1E0,4.4144096E0,8E0,4.0500135E0,3E0,1.5E1,2E0,8.8E1,3.1746034E-2,4.5E1,3.0303782E-1,5.5527277E-2,4E1,1.4705882E-2,7.1E1,3.1896716E-1,5E0,3.2E1,1.4E1,2.1153846E-1,4.349342E0,1.2287514E-1,4.0304933E0,4.4E1,9E0,3E0,3.020224E-1,2.2866584E-1,1E0,1.8E1,2E0,5E0,3E0,3.1178132E-1,2.1E1,3.0630827E-1,8E0,6E0,1.2162162E-1,4.320796E-2,1.7009388E-1,3.8780478E-1,3.6E1,1E0,3.713006E-2,9E0,-9.080591E-2,5.7E1,1.4E1,7.9E1,2.8778547E-1,3.0181727E-1,3.020171E-1,3.0560103E-1,3.119119E-1,3.1653154E-1,3.0940908E-1,3.059486E-1,3.1877312E-1,3.2747725E-1,3.126911E-1,3.0978727E-1,-6.839132E-2,-1.6034538E-1,9.1379195E-2,-1.1537395E-1,-2.647821E-1,-1.8851018E-1,-8.8589214E-4,3.5528842E-1,-1.2936397E-1,3.040793E-1,4.207525E-1,1.26672E-1,-3.093102E-1,-2.7481362E-1,3.512576E-1,-9.063068E-2,-2.4932674E-1,-6.3105464E-2],"split_indices":[4,1,36,30,39,33,30,14,30,17,12,1,7,26,13,0,0,7,26,7,0,15,12,12,26,30,0,30,7,14,17,0,0,39,14,1,15,17,0,12,0,14,17,26,0,0,0,13,22,0,14,0,7,14,7,0,0,0,0,0,0,0,0,0,0,0,0,0,0,0,0,0,0,0,0,0,0,0,0,0,0,0,0,0,0],"split_type":[0,0,0,0,0,0,0,0,0,0,0,0,0,0,0,0,0,0,0,0,0,0,0,0,0,0,0,0,0,0,0,0,0,0,0,0,0,0,0,0,0,0,0,0,0,0,0,0,0,0,0,0,0,0,0,0,0,0,0,0,0,0,0,0,0,0,0,0,0,0,0,0,0,0,0,0,0,0,0,0,0,0,0,0,0],"sum_hessian":[4.771107E3,1.1604238E3,3.6106833E3,3.407244E2,8.1969946E2,3.1390393E3,4.7164386E2,8.075222E1,2.5997217E2,2.5392386E2,5.657756E2,3.0723516E3,6.668779E1,2.8188992E2,1.8975392E2,5.9673454E1,2.1078768E1,4.849711E1,2.1147507E2,2.3200404E2,2.1919813E1,5.0311078E2,6.2664818E1,2.5980117E3,4.7433994E2,4.398623E1,2.2701563E1,1.7896423E2,1.029257E2,6.546265E1,1.2429128E2,2.9999212E1,1.8497896E1,8.672099E1,1.24754074E2,1.8843231E2,4.3571724E1,4.7168405E2,3.1426722E1,4.511696E1,1.7547863E1,2.3819944E3,2.1601726E2,4.508809E2,2.345906E1,2.1183926E1,2.2802305E1,5.0181587E1,1.2878264E2,1.9218084E1,8.370761E1,1.651289E1,4.8949753E1,7.9198944E1,4.509234E1,3.7208622E1,4.951237E1,1.0315559E2,2.1598484E1,1.7217421E2,1.6258102E1,2.7098312E1,1.6473412E1,4.4887076E2,2.2813301E1,2.4449177E1,2.066778E1,8.432238E2,1.5387706E3,1.6803168E2,4.7985584E1,3.897471E2,6.1133778E1,2.5145273E1,2.5036314E1,1.12617615E2,1.6165028E1,6.2267525E1,2.1440088E1,1.8633614E1,3.0316141E1,4.0032047E1,3.9166897E1,1.635579E1,2.8736551E1],"tree_param":{"num_deleted":"0","num_feature":"44","num_nodes":"85","size_leaf_vector":"1"}},{"base_weights":[-8.1471745E-3,1.0017971E0,-2.8056595E-1,9.1331923E-1,1.0390961E0,-2.1860512E-1,-6.70452E-1,7.3555E-1,9.722009E-1,1.040985E0,3.0386287E-1,-2.7995402E-1,1.6126034E-1,-7.947044E-1,-2.3383805E-1,3.0254352E-1,5.5825864E-3,8.7962645E-1,9.9404114E-1,1.0312808E0,1.0452714E0,-3.4340802E-1,6.911582E-1,-4.8796824E-1,3.84253E-1,-8.451467E-1,-3.3065656E-1,3.0844572E-1,-4.9119616E-1,3.0149227E-1,2.1674497E-1,9.760981E-1,1.0065953E0,1.0323961E0,3.0609187E-1,1.0470897E0,1.0276536E0,-3.90614E-1,1.0163537E-1,5.6064427E-1,4.2762536E-1,-5.912279E-1,2.3959083E-3,8.6289227E-1,1.0821696E-2,-8.8159037E-1,-1.0584617E-1,-2.1814752E-1,3.26709E-2,1.2627962E-2,-6.395237E-1,2.8168806E-1,3.013426E-1,3.0150068E-1,3.0424896E-1,3.0769184E-1,3.1006014E-1,3.144164E-1,3.0950356E-1,3.105271E-1,3.065408E-1,-5.619048E-2,-1.5531075E-1,-6.407051E-2,2.0421474E-1,1.03115864E-1,3.346601E-1,-1.3527255E-1,-2.6493427E-1,2.8993946E-1,6.0387474E-2,-1.0149912E-1,3.0331463E-1,-2.7391872E-1,-1.788742E-1,-1.0007582E-1,-2.2268014E-1],"categories":[],"categories_nodes":[],"categories_segments":[],"categories_sizes":[],"default_left":[0,0,0,0,0,0,0,0,0,0,0,0,0,0,0,0,0,0,0,0,0,0,0,0,0,0,0,0,0,0,0,0,0,0,0,0,0,0,0,0,0,0,0,0,0,0,0,0,0,0,0,0,0,0,0,0,0,0,0,0,0,0,0,0,0,0,0,0,0,0,0,0,0,0,0,0,0],"id":17,"left_children":[1,3,5,7,9,11,13,15,17,19,-1,21,23,25,27,-1,-1,29,31,33,35,37,39,41,43,45,47,-1,49,-1,-1,51,53,55,-1,57,59,61,63,65,-1,67,-1,69,71,73,-1,-1,-1,-1,75,-1,-1,-1,-1,-1,-1,-1,-1,-1,-1,-1,-1,-1,-1,-1,-1,-1,-1,-1,-1,-1,-1,-1,-1,-1,-1],"loss_changes":[1.1309578E3,2.8811035E0,7.82081E1,2.7100372E0,2.9724121E-2,6.510016E1,2.4083511E1,1.2607853E1,3.9263916E-1,2.3132324E-2,0E0,1.4820174E2,5.6232746E1,8.08902E0,3.1942083E1,0E0,0E0,7.308674E-1,3.4729004E-2,1.4038086E-3,1.1962891E-2,4.7428223E1,1.4135429E1,5.085737E0,5.167606E1,5.5922394E0,5.905651E0,0E0,6.462059E0,0E0,0E0,6.758499E-2,3.8909912E-4,4.5776367E-4,0E0,4.6081543E-3,8.69751E-4,5.2737762E1,3.951656E1,1.5075581E1,0E0,3.36586E0,0E0,8.682121E0,5.671814E1,2.6057587E0,0E0,0E0,0E0,0E0,2.0086327E0,0E0,0E0,0E0,0E0,0E0,0E0,0E0,0E0,0E0,0E0,0E0,0E0,0E0,0E0,0E0,0E0,0E0,0E0,0E0,0E0,0E0,0E0,0E0,0E0,0E0,0E0],"parents":[2147483647,0,0,1,1,2,2,3,3,4,4,5,5,6,6,7,7,8,8,9,9,11,11,12,12,13,13,14,14,17,17,18,18,19,19,20,20,21,21,22,22,23,23,24,24,25,25,26,26,28,28,31,31,32,32,33,33,35,35,36,36,37,37,38,38,39,39,41,41,43,43,44,44,45,45,50,50],"right_children":[2,4,6,8,10,12,14,16,18,20,-1,22,24,